an0,an1,an2,an3,an4,an5,an6,an7,an8,an9,an10,an11,an12,an13,an14,an15,an16,an17,an18,an19,an20,an21,an22,an23,an24,an25,an26,an27,an28,an29,an30,an31,n0,n1,n2,n3,n4,n5,n6,n7,n8,n9,n10,n11,n12,n13,n14,n15,n16,n17,n18,n19,n20,n21,n22,n23,n24,n25,n26,n27,n28,n29,n30,n31,class
0.1812444,-0.9690434,0.5261654,-0.151737,0.0932368,-0.2332508,-0.1305846,-0.0525702,0.0117988,0.1205162,0.1396726,-0.8076196,0.0668272,0.0503186,0.284406,-0.4913924,-0.1655532,-0.1024352,-0.6135932,0.0318984,0.3495282,0.215503,-0.1790214,0.1775844,0.9578956,-0.5956106,0.5410454,-0.0202678,0.085148,-0.538087,-0.096342,-0.1253838,0.166847,-0.977878,0.561741,-0.20718,0.091926,-0.228861,-0.161614,-0.026676,-0.026673,0.138678,0.172947,-0.659183,0.05908,-0.011664,0.293765,-0.473566,-0.204293,-0.115744,-0.615074,0.142251,0.428677,0.170229,-0.199559,0.207312,0.884052,-0.535335,0.525656,0.000796,0.068412,-0.532066,-0.034885,-0.206175,True
0.3502524,-0.1957724,0.2094644,0.159128,0.4637948,0.5852542,0.2973244,-0.0061592,-0.2129312,-0.4185658,0.0065756,-0.8129956,-0.2774688,-0.2733394,-0.18112,-0.6385544,0.0175258,-0.3356312,-0.3314872,-0.1581806,-0.3959248,0.617224,-0.5996284,0.3937654,0.1635636,-0.2336346,-0.1204676,0.2401132,-0.083389,-0.656571,0.026989,-0.1741048,0.335855,-0.204607,0.24504,0.103685,0.462484,0.589644,0.266295,0.019735,-0.251403,-0.400404,0.03985,-0.664559,-0.285216,-0.335322,-0.171761,-0.620728,-0.021214,-0.34894,-0.332968,-0.047828,-0.316776,0.57195,-0.620166,0.423493,0.08972,-0.173359,-0.135857,0.261177,-0.100125,-0.65055,0.088446,-0.254896,True
0.2086364,-0.7167524,0.4858444,-0.11934,0.3169018,0.2056802,0.0641244,-0.0282602,-0.0433602,-0.2066738,0.1499626,-0.8576276,-0.1409398,-0.2125944,-0.04409,-0.6584834,-0.1540402,-0.2000332,-0.4736872,0.0374414,-0.3079898,0.246873,-0.5328184,0.3559014,0.5825626,-0.5309126,0.2342804,-0.0661958,0.21255,-0.630655,0.066583,-0.0745308,0.194239,-0.725587,0.52142,-0.174783,0.315591,0.21007,0.033095,-0.002366,-0.081832,-0.188512,0.183237,-0.709191,-0.148687,-0.274577,-0.034731,-0.640657,-0.19278,-0.213342,-0.475168,0.147794,-0.228841,0.201599,-0.553356,0.385629,0.508719,-0.470637,0.218891,-0.045132,0.195814,-0.624634,0.12804,-0.155322,True
0.2112214,0.2023656,0.0172844,0.361459,-0.0468092,-0.0923568,0.2695014,-0.2677662,-0.4961262,-0.1565398,-0.0253714,-0.4411116,0.2915182,0.1073676,-0.00023,-0.3781714,-0.2353692,0.0110818,0.4379708,-0.0387666,-0.1157418,0.033301,0.0841416,0.0118744,-0.0346554,-0.3690766,-0.1720106,0.0072892,0.017886,-0.552601,-0.154656,-0.0586548,0.196824,0.193531,0.05286,0.306016,-0.04812,-0.087967,0.238472,-0.241872,-0.534598,-0.138378,0.007903,-0.292675,0.283771,0.045385,0.009129,-0.360345,-0.274109,-0.002227,0.43649,0.071586,-0.036593,-0.011973,0.063604,0.041602,-0.108499,-0.308801,-0.1874,0.028353,0.00115,-0.54658,-0.093199,-0.139446,True
0.3251734,0.2636836,0.0986104,0.171113,0.4550938,0.4900612,0.4414104,-0.2176222,0.1605608,-0.3157708,0.1891996,-0.4117666,0.2458412,0.0935096,-0.272791,-0.3272634,-0.0052772,0.2722088,0.0859658,-0.3748666,-0.4282338,-0.019302,-0.1977304,0.0471714,0.4149306,-0.3587956,0.2346224,0.3660912,0.073961,-0.316364,-0.41256,-0.1166418,0.310776,0.254849,0.134186,0.11567,0.453783,0.494451,0.410381,-0.191728,0.122089,-0.297609,0.222474,-0.26333,0.238094,0.031527,-0.263432,-0.309437,-0.044017,0.2589,0.084485,-0.264514,-0.349085,-0.064576,-0.218268,0.076899,0.341087,-0.29852,0.219233,0.387155,0.057225,-0.310343,-0.351103,-0.197433,True
0.1586264,-0.7468274,0.6717984,-0.075118,0.1720508,-0.1928678,0.2706204,-0.2547102,-0.0262662,-0.1278758,0.2306196,-1.0546686,-0.0723008,-0.0330404,0.008362,-0.4059744,0.0244208,0.0723148,-0.2280262,-0.2293716,-0.2773358,-0.100068,-0.3167424,0.1494264,0.5693476,-0.5330106,0.2077174,-0.0540998,0.227354,-0.373147,-0.166924,0.0349092,0.144229,-0.755662,0.707374,-0.130561,0.17074,-0.188478,0.239591,-0.228816,-0.064738,-0.109714,0.263894,-0.906232,-0.080048,-0.095023,0.017721,-0.388148,-0.014319,0.059006,-0.229507,-0.119019,-0.198187,-0.145342,-0.33728,0.179154,0.495504,-0.472735,0.192328,-0.033036,0.210618,-0.367126,-0.105467,-0.045882,True
0.0669204,-0.1655634,0.1338604,0.027566,0.3791578,-0.0617868,0.2860634,-0.1598572,-0.3204362,-0.2021028,-0.0963224,-0.7227596,-0.0436318,-0.3126364,-0.220831,-0.7254824,-0.0097632,0.0866108,-0.1835162,0.1415734,-0.1833238,-0.027607,-0.1338964,0.3643624,0.3941396,-0.3680006,0.0991604,0.0880912,0.150485,-0.72827,0.074833,-0.0376618,0.052523,-0.174398,0.169436,-0.027877,0.377847,-0.057397,0.255034,-0.133963,-0.358908,-0.183941,-0.063048,-0.574323,-0.051379,-0.374619,-0.211472,-0.707656,-0.048503,0.073302,-0.184997,0.251926,-0.104175,-0.072881,-0.154434,0.39409,0.320296,-0.307725,0.083771,0.109155,0.133749,-0.722249,0.13629,-0.118453,True
0.2075674,0.1548956,-0.1683096,-0.159184,-0.0671362,-0.2104648,0.4599864,-0.2278082,-0.5186562,-0.1369658,0.1494726,-0.3493386,0.0684762,0.1584406,-0.045536,-0.6822674,0.1295938,0.0065528,0.0926658,-0.1368406,0.1750332,-0.120693,0.1855176,-0.1686036,0.6033786,-0.3089916,-0.1419026,0.0224462,-0.128028,-0.094953,0.044956,-0.2616228,0.19317,0.146061,-0.132734,-0.214627,-0.068447,-0.206075,0.428957,-0.201914,-0.557128,-0.118804,0.182747,-0.200902,0.060729,0.096458,-0.036177,-0.664441,0.090854,-0.006756,0.091185,-0.026488,0.254182,-0.165967,0.16498,-0.138876,0.529535,-0.248716,-0.157292,0.04351,-0.144764,-0.088932,0.106413,-0.342414,True
-0.0386186,0.2058916,-0.1564236,0.526294,0.3321768,0.5088752,0.1552414,0.0752608,0.0224538,-0.4515168,0.3473556,-0.0489446,-0.1669148,0.1145706,0.068482,-0.3531904,-0.1179912,-0.6744552,-0.4258742,-0.3675486,-0.0602088,0.522858,-0.1349364,0.0535304,0.0595626,-0.4698856,-0.2942106,-0.3263218,-0.211439,-0.195527,0.167963,0.2371102,-0.053016,0.197057,-0.120848,0.470851,0.330866,0.513265,0.124212,0.101155,-0.016018,-0.433355,0.38063,0.099492,-0.174662,0.052588,0.077841,-0.335364,-0.156731,-0.687764,-0.427355,-0.257196,0.01894,0.477584,-0.155474,0.083258,-0.014281,-0.40961,-0.3096,-0.305258,-0.228175,-0.189506,0.22942,0.156319,True
0.3924974,-0.0845144,0.0965454,0.470267,-0.1495272,0.1657572,0.4587974,0.2129128,-0.2858472,0.3672102,0.2019956,0.2350934,0.3759502,0.3300146,0.504095,0.0510676,-0.2889032,-0.0514352,0.1398398,-0.3223916,-0.1720678,0.288898,0.3951176,-0.2467716,-0.0756014,-0.2686676,-0.1370726,-0.3237688,-0.080774,-0.623131,0.207908,0.4403432,0.3781,-0.093349,0.132121,0.414824,-0.150838,0.170147,0.427768,0.238807,-0.324319,0.385372,0.23527,0.38353,0.368203,0.268032,0.513454,0.068894,-0.327643,-0.064744,0.138359,-0.212039,-0.092919,0.243624,0.37458,-0.217044,-0.149445,-0.208392,-0.152462,-0.302705,-0.09751,-0.61711,0.269365,0.359552,True
0.0536884,-0.7154514,0.8377244,0.175161,0.3436168,0.1072222,0.1005824,-0.0385052,0.1365198,-0.2786218,0.0011396,-1.1729536,-0.2501048,-0.2710004,0.327109,-0.6567134,0.0263018,0.3222148,-0.4734262,-0.3607696,-0.5374848,0.363825,-0.3772384,0.1400164,0.3489466,-0.6424526,0.2001674,0.1878352,0.262825,-0.57278,-0.386763,0.0226312,0.039291,-0.724286,0.8733,0.119718,0.342306,0.111612,0.069553,-0.012611,0.098048,-0.26046,0.034414,-1.024517,-0.257852,-0.332983,0.336468,-0.638887,-0.012438,0.308906,-0.474907,-0.250417,-0.458336,0.318551,-0.397776,0.169744,0.275103,-0.582177,0.184778,0.208899,0.246089,-0.566759,-0.325306,-0.05816,True
0.2569494,-0.0421794,0.0332894,-0.162131,0.2285078,0.1474232,0.7280624,-0.3673532,0.0272438,-0.2160958,0.2573736,-0.4251786,0.2831472,0.0471466,-0.396784,-0.5378834,-0.1195692,0.0071128,0.1692408,-0.2110896,-0.2217168,-0.070697,-0.1177584,-0.0154156,0.4782896,-0.2833936,0.0380914,0.1220662,0.015756,-0.35714,-0.145069,-0.0958188,0.242552,-0.051014,0.068865,-0.217574,0.227197,0.151813,0.697033,-0.341459,-0.011228,-0.197934,0.290648,-0.276742,0.2754,-0.014836,-0.387425,-0.520057,-0.158309,-0.006196,0.16776,-0.100737,-0.142568,-0.115971,-0.138296,0.014312,0.404446,-0.223118,0.022702,0.14313,-0.00098,-0.351119,-0.083612,-0.17661,True
0.3526154,-0.2760204,-0.5628616,0.139858,-0.0210642,-0.1921668,0.2247444,-0.0218462,-0.3578372,-0.1754188,-0.4445614,0.3210364,0.2257902,0.5502766,0.019735,-0.4112624,0.1029348,-0.1746712,-0.0520742,-0.5242476,0.1312642,0.413679,0.4306336,-0.2744606,0.3780936,-0.6550206,-0.3924506,-0.1141768,-0.290097,-0.209627,0.211038,-0.2883208,0.338218,-0.284855,-0.527286,0.084415,-0.022375,-0.187777,0.193715,0.004048,-0.396309,-0.157257,-0.411287,0.469473,0.218043,0.488294,0.029094,-0.393436,0.064195,-0.18798,-0.053555,-0.413895,0.210413,0.368405,0.410096,-0.244733,0.30425,-0.594745,-0.40784,-0.093113,-0.306833,-0.203606,0.272495,-0.369112,True
0.6268824,-0.2201174,0.2581004,0.748756,0.2465378,0.4726472,0.3183364,0.0513258,-0.2112662,-0.2949468,0.1056536,-0.5904066,0.2310472,0.2561186,-0.464895,0.1006246,0.0134978,0.0309578,-0.1219562,-0.2340676,-0.5204978,0.32127,-0.3622014,0.1486964,-0.2543304,-0.1897536,-0.1497586,-0.0223668,0.221858,-0.204027,-0.275252,0.6319992,0.612485,-0.228952,0.293676,0.693313,0.245227,0.477037,0.287307,0.07722,-0.249738,-0.276785,0.138928,-0.44197,0.2233,0.194136,-0.455536,0.118451,-0.025242,0.017649,-0.123437,-0.123715,-0.441349,0.275996,-0.382739,0.178424,-0.328174,-0.129478,-0.165148,-0.001303,0.205122,-0.198006,-0.213795,0.551208,True
0.4524224,0.2166256,-0.2218356,0.408522,0.1360248,0.2001572,0.4036974,-0.2876852,-0.1483602,-0.1946398,0.0383356,-0.0170756,0.3929322,0.4520916,-0.313392,-0.1050054,-0.2039262,-0.1818292,-0.0808032,-0.3628556,-0.3154548,0.053722,0.0659626,-0.0627826,0.3763076,-0.2191976,-0.3060726,-0.0797578,-0.242161,-0.475469,-0.20196,-0.0481208,0.438025,0.207791,-0.18626,0.353079,0.134714,0.204547,0.372668,-0.261791,-0.186832,-0.176478,0.07161,0.131361,0.385185,0.390109,-0.304033,-0.087179,-0.242666,-0.195138,-0.082284,-0.252503,-0.236306,0.008448,0.045425,-0.033055,0.302464,-0.158922,-0.321462,-0.058694,-0.258897,-0.469448,-0.140503,-0.128912,True
0.4735884,-0.3380124,0.0873824,-0.021502,-0.0545032,-0.4373268,-0.0573786,0.0088248,-0.4515182,-0.2933118,-0.1882004,-0.5236066,0.2611032,-0.1377354,-0.190987,-0.5760704,0.3452988,-0.1082312,-0.0528802,0.2888374,0.0991852,0.040405,-0.0345204,-0.0038906,0.5886286,-0.5060266,0.0458524,-0.3813538,-0.218659,-0.116077,-0.247658,-0.0758748,0.459191,-0.346847,0.122958,-0.076945,-0.055814,-0.432937,-0.088408,0.034719,-0.48999,-0.27515,-0.154926,-0.37517,0.253356,-0.199718,-0.181628,-0.558244,0.306559,-0.12154,-0.054361,0.39919,0.178334,-0.004869,-0.055058,0.025837,0.514785,-0.445751,0.030463,-0.36029,-0.235395,-0.110056,-0.186201,-0.156666,True
0.5596694,-0.0067384,0.3655234,0.699498,0.1825108,0.4070742,0.4596474,0.0337878,-0.1255332,-0.4007258,0.2127866,-0.6455676,0.4321132,0.2115896,-0.27499,-0.0979504,-0.0520592,0.0565298,0.2090368,-0.1122736,-0.5292098,0.180319,-0.3588314,-0.0515346,-0.1873584,-0.3142346,-0.1698226,-0.0465998,0.202795,-0.183016,-0.444997,0.6629912,0.545272,-0.015573,0.401099,0.644055,0.1812,0.411464,0.428618,0.059682,-0.164005,-0.382564,0.246061,-0.497131,0.424366,0.149607,-0.265631,-0.080124,-0.090799,0.043221,0.207556,-0.001921,-0.450061,0.135045,-0.379369,-0.021807,-0.261202,-0.253959,-0.185212,-0.025536,0.186059,-0.176995,-0.38354,0.5822,True
0.6236046,-0.1832408,0.2732792,0.689881,0.244704,0.5358232,0.3245434,0.1450642,-0.2804026,-0.348481,0.135575,-0.574298,0.245035,0.298074,-0.4449668,0.0502806,0.0133612,0.0383906,-0.0612702,-0.2548188,-0.4282776,0.244959,-0.3398034,0.1491078,-0.2639068,-0.1449446,-0.1431172,-0.00456,0.220582,-0.1537104,-0.2500458,0.6269374,0.612485,-0.228952,0.293676,0.693313,0.245227,0.477037,0.287307,0.07722,-0.249738,-0.276785,0.138928,-0.44197,0.2233,0.194136,-0.455536,0.118451,-0.025242,0.017649,-0.123437,-0.123715,-0.441349,0.275996,-0.382739,0.178424,-0.328174,-0.129478,-0.165148,-0.001303,0.205122,-0.198006,-0.213795,0.551208,True
0.5563916,0.0301382,0.3807022,0.640623,0.180677,0.4702502,0.4658544,0.1275262,-0.1946696,-0.45426,0.242708,-0.629459,0.446101,0.253545,-0.2550618,-0.1482944,-0.0521958,0.0639626,0.2697228,-0.1330248,-0.4369896,0.104008,-0.3364334,-0.0511232,-0.1969348,-0.2694256,-0.1631812,-0.028793,0.201519,-0.1326994,-0.4197908,0.6579294,0.545272,-0.015573,0.401099,0.644055,0.1812,0.411464,0.428618,0.059682,-0.164005,-0.382564,0.246061,-0.497131,0.424366,0.149607,-0.265631,-0.080124,-0.090799,0.043221,0.207556,-0.001921,-0.450061,0.135045,-0.379369,-0.021807,-0.261202,-0.253959,-0.185212,-0.025536,0.186059,-0.176995,-0.38354,0.5822,True
0.2288282,-0.9557362,0.5274754,-0.1422404,0.145089,-0.1999766,-0.0888744,0.02602,-0.0102018,0.0701564,0.1544228,-0.78235,0.0850002,0.0149224,0.3016338,-0.4718216,-0.1759996,-0.0485366,-0.6104678,0.084841,0.4011498,0.2039244,-0.2029762,0.2239574,0.956573,-0.5763938,0.5921618,-0.01299,0.1240418,-0.5147984,-0.0915094,-0.1799202,0.166847,-0.977878,0.561741,-0.20718,0.091926,-0.228861,-0.161614,-0.026676,-0.026673,0.138678,0.172947,-0.659183,0.05908,-0.011664,0.293765,-0.473566,-0.204293,-0.115744,-0.615074,0.142251,0.428677,0.170229,-0.199559,0.207312,0.884052,-0.535335,0.525656,0.000796,0.068412,-0.532066,-0.034885,-0.206175,True
0.2562202,-0.7034452,0.4871544,-0.1098434,0.368754,0.2389544,0.1058346,0.05033,-0.0653608,-0.2570336,0.1647128,-0.832358,-0.1227668,-0.2479906,-0.0268622,-0.6389126,-0.1644866,-0.1461346,-0.4705618,0.090384,-0.2563682,0.2352944,-0.5567732,0.4022744,0.58124,-0.5116958,0.2853968,-0.058918,0.2514438,-0.6073664,0.0714156,-0.1290672,0.194239,-0.725587,0.52142,-0.174783,0.315591,0.21007,0.033095,-0.002366,-0.081832,-0.188512,0.183237,-0.709191,-0.148687,-0.274577,-0.034731,-0.640657,-0.19278,-0.213342,-0.475168,0.147794,-0.228841,0.201599,-0.553356,0.385629,0.508719,-0.470637,0.218891,-0.045132,0.195814,-0.624634,0.12804,-0.155322,True
0.5462342,-0.0889762,0.0212924,0.4822826,0.200383,0.5912394,0.2312236,-0.019298,-0.2028728,-0.0462826,0.0385678,-0.269987,0.3660522,0.4138284,-0.1839422,-0.3322906,-0.4800436,0.1411534,-0.1258878,-0.290703,-0.3296402,0.0639434,-0.2430672,0.6017714,0.207429,-0.5902748,0.1803028,0.463901,0.0209978,-0.4109834,0.1450876,-0.0596322,0.484253,-0.111118,0.055558,0.417343,0.14722,0.562355,0.158484,-0.071994,-0.219344,0.022239,0.057092,-0.14682,0.340132,0.387242,-0.191811,-0.334035,-0.508337,0.073946,-0.130494,-0.233293,-0.302113,0.030248,-0.23965,0.585126,0.134908,-0.549216,0.113797,0.477687,-0.034632,-0.428251,0.201712,-0.085887,True
0.3062132,0.0455318,0.1072114,-0.3069374,0.026009,-0.3110436,0.2350756,-0.133196,-0.3954858,-0.3599916,-0.0632072,-0.087617,0.3295142,0.0982964,-0.3667332,-0.4961666,0.1872484,0.1783244,0.4205662,-0.132936,0.1261068,0.3042694,0.0241288,-0.5040686,0.18027,-0.3288828,-0.0571922,-0.431664,-0.0538432,0.2185336,0.1128256,-0.5579752,0.244232,0.02339,0.141477,-0.371877,-0.027154,-0.339928,0.162336,-0.185892,-0.411957,-0.29147,-0.044683,0.03555,0.303594,0.07171,-0.374602,-0.497911,0.158955,0.111117,0.41596,-0.075526,0.153634,0.270574,0.027546,-0.520714,0.107749,-0.287824,-0.123698,-0.417878,-0.109473,0.201266,0.16945,-0.58423,True
0.3727572,0.2769908,0.0999204,0.1806096,0.506946,0.5233354,0.4831206,-0.139032,0.1385602,-0.3661306,0.2039498,-0.386497,0.2640142,0.0581134,-0.2555632,-0.3076926,-0.0157236,0.3261074,0.0890912,-0.321924,-0.3766122,-0.0308806,-0.2216852,0.0935444,0.413608,-0.3395788,0.2857388,0.373369,0.1128548,-0.2930754,-0.4077274,-0.1711782,0.310776,0.254849,0.134186,0.11567,0.453783,0.494451,0.410381,-0.191728,0.122089,-0.297609,0.222474,-0.26333,0.238094,0.031527,-0.263432,-0.309437,-0.044017,0.2589,0.084485,-0.264514,-0.349085,-0.064576,-0.218268,0.076899,0.341087,-0.29852,0.219233,0.387155,0.057225,-0.310343,-0.351103,-0.197433,True
0.2062102,-0.7335202,0.6731084,-0.0656214,0.223903,-0.1595936,0.3123306,-0.17612,-0.0482668,-0.1782356,0.2453698,-1.029399,-0.0541278,-0.0684366,0.0255898,-0.3864036,0.0139744,0.1262134,-0.2249008,-0.176429,-0.2257142,-0.1116466,-0.3406972,0.1957994,0.568025,-0.5137938,0.2588338,-0.046822,0.2662478,-0.3498584,-0.1620914,-0.0196272,0.144229,-0.755662,0.707374,-0.130561,0.17074,-0.188478,0.239591,-0.228816,-0.064738,-0.109714,0.263894,-0.906232,-0.080048,-0.095023,0.017721,-0.388148,-0.014319,0.059006,-0.229507,-0.119019,-0.198187,-0.145342,-0.33728,0.179154,0.495504,-0.472735,0.192328,-0.033036,0.210618,-0.367126,-0.105467,-0.045882,True
0.3272952,-0.8510082,0.3434214,-0.3279944,0.049241,-0.0387206,-0.1885244,0.010594,0.0029142,-0.0727146,0.1590538,-0.673916,0.2229022,0.0018804,0.3876388,-0.3902156,-0.0682906,0.1113084,-0.6228118,-0.051576,0.4835868,0.4779434,0.0495328,0.2192564,0.924779,-0.5587198,0.7941058,0.044387,0.0703768,-0.3704874,0.0532236,0.0401028,0.265314,-0.87315,0.377687,-0.392934,-0.003922,-0.067605,-0.261264,-0.042102,-0.013557,-0.004193,0.177578,-0.550749,0.196982,-0.024706,0.37977,-0.39196,-0.096584,0.044101,-0.627418,0.005834,0.511114,0.444248,0.05295,0.202611,0.852258,-0.517661,0.7276,0.058173,0.014747,-0.387755,0.109848,0.013848,True
0.2000442,-0.3405632,-0.3265496,0.0932516,0.083114,-0.5408206,0.1317076,-0.082531,-0.0410288,0.1134164,-0.0696872,-0.268684,1.1121482,0.0816314,-0.6566022,-0.5192616,0.5076754,-0.0305736,0.4397362,0.741495,0.1966618,-0.2068376,-0.0733042,-0.0351606,0.052024,0.0294342,0.0878558,-0.319484,0.3711988,-0.6274814,-0.5809494,0.0703258,0.138063,-0.362705,-0.292284,0.028312,0.029951,-0.569705,0.058968,-0.135227,-0.0575,0.181938,-0.051163,-0.145517,1.086228,0.055045,-0.664471,-0.521006,0.479382,-0.097781,0.43513,0.798905,0.224189,-0.240533,-0.069887,-0.051806,-0.020497,0.070493,0.02135,-0.305698,0.315569,-0.644749,-0.524325,0.044071,True
0.1145042,-0.1522562,0.1351704,0.0370626,0.43101,-0.0285126,0.3277736,-0.081267,-0.3424368,-0.2524626,-0.0815722,-0.69749,-0.0254588,-0.3480326,-0.2036032,-0.7059116,-0.0202096,0.1405094,-0.1803908,0.194516,-0.1317022,-0.0391856,-0.1578512,0.4107354,0.392817,-0.3487838,0.1502768,0.095369,0.1893788,-0.7049814,0.0796656,-0.0921982,0.052523,-0.174398,0.169436,-0.027877,0.377847,-0.057397,0.255034,-0.133963,-0.358908,-0.183941,-0.063048,-0.574323,-0.051379,-0.374619,-0.211472,-0.707656,-0.048503,0.073302,-0.184997,0.251926,-0.104175,-0.072881,-0.154434,0.39409,0.320296,-0.307725,0.083771,0.109155,0.133749,-0.722249,0.13629,-0.118453,True
0.2551512,0.1682028,-0.1669996,-0.1496874,-0.015284,-0.1771906,0.5016966,-0.149218,-0.5406568,-0.1873256,0.1642228,-0.324069,0.0866492,0.1230444,-0.0283082,-0.6626966,0.1191474,0.0604514,0.0957912,-0.083898,0.2266548,-0.1322716,0.1615628,-0.1222306,0.602056,-0.2897748,-0.0907862,0.029724,-0.0891342,-0.0716644,0.0497886,-0.3161592,0.19317,0.146061,-0.132734,-0.214627,-0.068447,-0.206075,0.428957,-0.201914,-0.557128,-0.118804,0.182747,-0.200902,0.060729,0.096458,-0.036177,-0.664441,0.090854,-0.006756,0.091185,-0.026488,0.254182,-0.165967,0.16498,-0.138876,0.529535,-0.248716,-0.157292,0.04351,-0.144764,-0.088932,0.106413,-0.342414,True
0.0089652,0.2191988,-0.1551136,0.5357906,0.384029,0.5421494,0.1969516,0.153851,0.0004532,-0.5018766,0.3621058,-0.023675,-0.1487418,0.0791744,0.0857098,-0.3336196,-0.1284376,-0.6205566,-0.4227488,-0.314606,-0.0085872,0.5112794,-0.1588912,0.0999034,0.05824,-0.4506688,-0.2430942,-0.319044,-0.1725452,-0.1722384,0.1727956,0.1825738,-0.053016,0.197057,-0.120848,0.470851,0.330866,0.513265,0.124212,0.101155,-0.016018,-0.433355,0.38063,0.099492,-0.174662,0.052588,0.077841,-0.335364,-0.156731,-0.687764,-0.427355,-0.257196,0.01894,0.477584,-0.155474,0.083258,-0.014281,-0.40961,-0.3096,-0.305258,-0.228175,-0.189506,0.22942,0.156319,True
0.4400812,-0.0712072,0.0978554,0.4797636,-0.097675,0.1990314,0.5005076,0.291503,-0.3078478,0.3168504,0.2167458,0.260363,0.3941232,0.2946184,0.5213228,0.0706384,-0.2993496,0.0024634,0.1429652,-0.269449,-0.1204462,0.2773194,0.3711628,-0.2003986,-0.076924,-0.2494508,-0.0859562,-0.316491,-0.0418802,-0.5998424,0.2127406,0.3858068,0.3781,-0.093349,0.132121,0.414824,-0.150838,0.170147,0.427768,0.238807,-0.324319,0.385372,0.23527,0.38353,0.368203,0.268032,0.513454,0.068894,-0.327643,-0.064744,0.138359,-0.212039,-0.092919,0.243624,0.37458,-0.217044,-0.149445,-0.208392,-0.152462,-0.302705,-0.09751,-0.61711,0.269365,0.359552,True
0.3045332,-0.0288722,0.0345994,-0.1526344,0.28036,0.1806974,0.7697726,-0.288763,0.0052432,-0.2664556,0.2721238,-0.399909,0.3013202,0.0117504,-0.3795562,-0.5183126,-0.1300156,0.0610114,0.1723662,-0.158147,-0.1700952,-0.0822756,-0.1417132,0.0309574,0.476967,-0.2641768,0.0892078,0.129344,0.0546498,-0.3338514,-0.1402364,-0.1503552,0.242552,-0.051014,0.068865,-0.217574,0.227197,0.151813,0.697033,-0.341459,-0.011228,-0.197934,0.290648,-0.276742,0.2754,-0.014836,-0.387425,-0.520057,-0.158309,-0.006196,0.16776,-0.100737,-0.142568,-0.115971,-0.138296,0.014312,0.404446,-0.223118,0.022702,0.14313,-0.00098,-0.351119,-0.083612,-0.17661,True
0.6170042,0.4031868,-0.5758526,0.2932596,-0.038646,-0.0177746,0.3568296,0.225831,-0.4826698,0.0596124,0.2426838,0.20218,0.2774042,0.4062114,-0.2209962,-0.4367866,-0.3791596,0.0261744,0.2479112,-0.307539,0.0879478,-0.1388726,0.0167078,0.1018814,0.484234,-0.0309238,0.0209398,0.166364,-0.0723502,-0.2785034,0.0150896,-0.1369292,0.555023,0.381045,-0.541587,0.22832,-0.091809,-0.046659,0.28409,0.173135,-0.499141,0.128134,0.261208,0.325347,0.251484,0.379625,-0.228865,-0.438531,-0.407453,-0.041033,0.243305,-0.250129,0.115475,-0.172568,0.020125,0.085236,0.411713,0.010135,-0.045566,0.18015,-0.12798,-0.295771,0.071714,-0.163184,True
0.6744662,-0.2068102,0.2594104,0.7582526,0.29839,0.5059214,0.3600466,0.129916,-0.2332668,-0.3453066,0.1204038,-0.565137,0.2492202,0.2207224,-0.4476672,0.1201954,0.0030514,0.0848564,-0.1188308,-0.181125,-0.4688762,0.3096914,-0.3861562,0.1950694,-0.255653,-0.1705368,-0.0986422,-0.015089,0.2607518,-0.1807384,-0.2704194,0.5774628,0.612485,-0.228952,0.293676,0.693313,0.245227,0.477037,0.287307,0.07722,-0.249738,-0.276785,0.138928,-0.44197,0.2233,0.194136,-0.455536,0.118451,-0.025242,0.017649,-0.123437,-0.123715,-0.441349,0.275996,-0.382739,0.178424,-0.328174,-0.129478,-0.165148,-0.001303,0.205122,-0.198006,-0.213795,0.551208,True
0.5000062,0.2299328,-0.2205256,0.4180186,0.187877,0.2334314,0.4454076,-0.209095,-0.1703608,-0.2449996,0.0530858,0.008194,0.4111052,0.4166954,-0.2961642,-0.0854346,-0.2143726,-0.1279306,-0.0776778,-0.309913,-0.2638332,0.0421434,0.0420078,-0.0164096,0.374985,-0.1999808,-0.2549562,-0.07248,-0.2032672,-0.4521804,-0.1971274,-0.1026572,0.438025,0.207791,-0.18626,0.353079,0.134714,0.204547,0.372668,-0.261791,-0.186832,-0.176478,0.07161,0.131361,0.385185,0.390109,-0.304033,-0.087179,-0.242666,-0.195138,-0.082284,-0.252503,-0.236306,0.008448,0.045425,-0.033055,0.302464,-0.158922,-0.321462,-0.058694,-0.258897,-0.469448,-0.140503,-0.128912,True
0.6072532,0.0065688,0.3668334,0.7089946,0.234363,0.4403484,0.5013576,0.112378,-0.1475338,-0.4510856,0.2275368,-0.620298,0.4502862,0.1761934,-0.2577622,-0.0783796,-0.0625056,0.1104284,0.2121622,-0.059331,-0.4775882,0.1687404,-0.3827862,-0.0051616,-0.188681,-0.2950178,-0.1187062,-0.039322,0.2416888,-0.1597274,-0.4401644,0.6084548,0.545272,-0.015573,0.401099,0.644055,0.1812,0.411464,0.428618,0.059682,-0.164005,-0.382564,0.246061,-0.497131,0.424366,0.149607,-0.265631,-0.080124,-0.090799,0.043221,0.207556,-0.001921,-0.450061,0.135045,-0.379369,-0.021807,-0.261202,-0.253959,-0.185212,-0.025536,0.186059,-0.176995,-0.38354,0.5822,True
0.3630732,-0.1236132,0.1382484,0.3638376,0.238904,0.4033714,0.3329986,-0.131522,-0.1816968,-0.0302036,0.1947538,-0.393618,0.2697882,0.4002284,-0.1163242,-0.3463696,-0.1793216,0.1197804,-0.3646038,0.015557,-0.2380842,0.2823994,-0.1329052,0.4320524,0.132468,-0.6633418,0.1707178,0.256671,-0.0199332,-0.3991004,0.0116416,-0.2200162,0.301092,-0.145755,0.172514,0.298898,0.185741,0.374487,0.260259,-0.184218,-0.198168,0.038318,0.213278,-0.270451,0.243868,0.373642,-0.124193,-0.348114,-0.207615,0.052573,-0.36921,0.072967,-0.210557,0.248704,-0.129488,0.415407,0.059947,-0.622283,0.104212,0.270457,-0.075563,-0.416368,0.068266,-0.246271,True
0.2860064,0.2542784,0.1158766,0.1556128,0.4401372,0.5774282,0.4022774,-0.1524296,0.1271594,-0.3794522,0.200273,-0.4134352,0.2710804,0.095308,-0.3093456,-0.3011794,-0.0058948,0.309194,0.0668884,-0.3748808,-0.3618352,-0.0710824,-0.1230636,0.0357858,0.3635338,-0.3652438,0.27922,0.3929068,0.0565842,-0.3266356,-0.4041222,-0.142138,0.310776,0.254849,0.134186,0.11567,0.453783,0.494451,0.410381,-0.191728,0.122089,-0.297609,0.222474,-0.26333,0.238094,0.031527,-0.263432,-0.309437,-0.044017,0.2589,0.084485,-0.264514,-0.349085,-0.064576,-0.218268,0.076899,0.341087,-0.29852,0.219233,0.387155,0.057225,-0.310343,-0.351103,-0.197433,True
0.5877154,-0.2295226,0.2753666,0.7332558,0.2315812,0.5600142,0.2792034,0.1165184,-0.2446676,-0.3586282,0.116727,-0.5920752,0.2562864,0.257917,-0.5014496,0.1267086,0.0128802,0.067943,-0.1410336,-0.2340818,-0.4540992,0.2694896,-0.2875346,0.1373108,-0.3057272,-0.1962018,-0.105161,0.0044488,0.2044812,-0.2142986,-0.2668142,0.606503,0.612485,-0.228952,0.293676,0.693313,0.245227,0.477037,0.287307,0.07722,-0.249738,-0.276785,0.138928,-0.44197,0.2233,0.194136,-0.455536,0.118451,-0.025242,0.017649,-0.123437,-0.123715,-0.441349,0.275996,-0.382739,0.178424,-0.328174,-0.129478,-0.165148,-0.001303,0.205122,-0.198006,-0.213795,0.551208,True
0.5205024,-0.0161436,0.3827896,0.6839978,0.1675542,0.4944412,0.4205144,0.0989804,-0.1589346,-0.4644072,0.22386,-0.6472362,0.4573524,0.213388,-0.3115446,-0.0718664,-0.0526768,0.093515,0.1899594,-0.1122878,-0.4628112,0.1285386,-0.2841646,-0.0629202,-0.2387552,-0.3206828,-0.125225,-0.0197842,0.1854182,-0.1932876,-0.4365592,0.637495,0.545272,-0.015573,0.401099,0.644055,0.1812,0.411464,0.428618,0.059682,-0.164005,-0.382564,0.246061,-0.497131,0.424366,0.149607,-0.265631,-0.080124,-0.090799,0.043221,0.207556,-0.001921,-0.450061,0.135045,-0.379369,-0.021807,-0.261202,-0.253959,-0.185212,-0.025536,0.186059,-0.176995,-0.38354,0.5822,True
0.4260468,0.3349192,-0.1948468,-0.0968428,-0.3597374,-0.4577304,0.1399666,0.1479734,-0.8913782,-1.007229,-0.3181674,0.4953906,0.0831552,0.2560738,-0.5988148,-0.4769064,0.8724806,0.3075306,0.1394728,-0.0505368,0.1125228,0.1009524,0.4263254,-0.5150998,0.4825024,-0.1680526,0.0971428,-0.0328052,-0.8056034,-0.366395,-0.4158224,-0.578606,0.390596,0.314399,-0.261215,-0.17923,-0.345795,-0.509164,0.039529,0.087113,-0.813842,-0.896536,-0.291719,0.625418,0.153097,0.167296,-0.587272,-0.506762,0.828856,0.256829,0.206353,-0.013071,0.164517,0.078222,0.419754,-0.484362,0.409493,-0.14422,0.001082,0.016111,-0.799567,-0.392164,-0.385347,-0.578942,True
0.4734758,0.2283112,-0.1198918,0.4354662,0.1207716,0.2559806,0.4731056,-0.2009306,-0.2643682,-0.287171,0.0451616,0.0013336,0.3152432,0.4788868,-0.3155758,-0.0573234,-0.1990414,-0.1444364,-0.1491642,-0.2899688,-0.2883002,0.0311784,0.0519964,-0.0637928,0.3754734,-0.1827546,-0.2254012,-0.1076102,-0.2649334,-0.443679,-0.1709784,-0.128576,0.438025,0.207791,-0.18626,0.353079,0.134714,0.204547,0.372668,-0.261791,-0.186832,-0.176478,0.07161,0.131361,0.385185,0.390109,-0.304033,-0.087179,-0.242666,-0.195138,-0.082284,-0.252503,-0.236306,0.008448,0.045425,-0.033055,0.302464,-0.158922,-0.321462,-0.058694,-0.258897,-0.469448,-0.140503,-0.128912,True
0.5807228,0.0049472,0.4674672,0.7264422,0.1672576,0.4628976,0.5290556,0.1205424,-0.2415412,-0.493257,0.2196126,-0.6271584,0.3544242,0.2383848,-0.2771738,-0.0502684,-0.0471744,0.0939226,0.1406758,-0.0393868,-0.5020552,0.1577754,-0.3727976,-0.0525448,-0.1881926,-0.2777916,-0.0891512,-0.0744522,0.1800226,-0.151226,-0.4140154,0.582536,0.545272,-0.015573,0.401099,0.644055,0.1812,0.411464,0.428618,0.059682,-0.164005,-0.382564,0.246061,-0.497131,0.424366,0.149607,-0.265631,-0.080124,-0.090799,0.043221,0.207556,-0.001921,-0.450061,0.135045,-0.379369,-0.021807,-0.261202,-0.253959,-0.185212,-0.025536,0.186059,-0.176995,-0.38354,0.5822,True
0.6598296,-0.2111786,0.2911228,0.7700442,0.263422,0.4772826,0.3930906,0.102264,-0.2585254,-0.2579092,0.1427868,-0.4678276,0.224557,0.2555638,-0.4996584,0.169482,0.1549288,0.0311962,-0.0830106,-0.1465984,-0.4591052,0.3548604,-0.4028876,0.2322544,-0.3588644,-0.0216864,-0.156531,-0.0243868,0.2739878,-0.1868656,-0.128881,0.571304,0.612485,-0.228952,0.293676,0.693313,0.245227,0.477037,0.287307,0.07722,-0.249738,-0.276785,0.138928,-0.44197,0.2233,0.194136,-0.455536,0.118451,-0.025242,0.017649,-0.123437,-0.123715,-0.441349,0.275996,-0.382739,0.178424,-0.328174,-0.129478,-0.165148,-0.001303,0.205122,-0.198006,-0.213795,0.551208,True
0.5926166,0.0022004,0.3985458,0.7207862,0.199395,0.4117096,0.5344016,0.084726,-0.1727924,-0.3636882,0.2499198,-0.5229886,0.425623,0.2110348,-0.3097534,-0.029093,0.0893718,0.0567682,0.2479824,-0.0248044,-0.4678172,0.2139094,-0.3995176,0.0320234,-0.2918924,-0.1461674,-0.176595,-0.0486198,0.2549248,-0.1658546,-0.298626,0.602296,0.545272,-0.015573,0.401099,0.644055,0.1812,0.411464,0.428618,0.059682,-0.164005,-0.382564,0.246061,-0.497131,0.424366,0.149607,-0.265631,-0.080124,-0.090799,0.043221,0.207556,-0.001921,-0.450061,0.135045,-0.379369,-0.021807,-0.261202,-0.253959,-0.185212,-0.025536,0.186059,-0.176995,-0.38354,0.5822,True
0.3881218,0.022497,-0.3905752,-0.0334324,0.3249486,0.0783472,0.4992056,0.2238036,-0.349255,0.8101176,0.6691896,0.4581606,-0.0387046,0.5432674,0.1717982,-0.185744,0.1264334,0.0415856,0.2488284,-0.159843,0.2940772,1.106864,0.102787,0.38572,0.130865,0.3783592,-0.118272,-0.3847594,-0.3504762,-0.6598646,0.431186,-0.4194808,0.34946,0.000501,-0.342433,0.053366,0.356819,0.128819,0.510374,0.164727,-0.288139,0.774055,0.536975,0.595761,-0.068146,0.427659,0.1902,-0.1498,0.118758,0.045725,0.215241,-0.169256,0.310818,1.03009,0.05723,0.403774,0.061899,0.413197,-0.166078,-0.383702,-0.409052,-0.642444,0.317542,-0.502933,True
-0.0143542,0.219053,-0.1689902,0.3840526,0.2989956,0.4627932,0.1130436,0.1602316,-0.077134,-0.3972924,0.5128446,-0.0381084,-0.1452206,0.1681964,0.0594392,-0.371308,-0.1490556,-0.6919034,-0.3937676,-0.247783,0.0021992,0.554358,-0.109917,0.065204,0.054685,-0.4444478,-0.261794,-0.3063154,-0.1695992,-0.2069266,0.343064,0.2397712,-0.053016,0.197057,-0.120848,0.470851,0.330866,0.513265,0.124212,0.101155,-0.016018,-0.433355,0.38063,0.099492,-0.174662,0.052588,0.077841,-0.335364,-0.156731,-0.687764,-0.427355,-0.257196,0.01894,0.477584,-0.155474,0.083258,-0.014281,-0.40961,-0.3096,-0.305258,-0.228175,-0.189506,0.22942,0.156319,True
0.3768798,-0.262859,-0.5754282,-0.0023834,-0.0542454,-0.2382488,0.1825466,0.0631246,-0.457425,-0.1211944,-0.2790724,0.3318726,0.2474844,0.6039024,0.0106922,-0.42938,0.0718704,-0.1921194,-0.0199676,-0.404482,0.1936722,0.445179,0.455653,-0.262787,0.373216,-0.6295828,-0.360034,-0.0941704,-0.2482572,-0.2210266,0.386139,-0.2856598,0.338218,-0.284855,-0.527286,0.084415,-0.022375,-0.187777,0.193715,0.004048,-0.396309,-0.157257,-0.411287,0.469473,0.218043,0.488294,0.029094,-0.393436,0.064195,-0.18798,-0.053555,-0.413895,0.210413,0.368405,0.410096,-0.244733,0.30425,-0.594745,-0.40784,-0.093113,-0.306833,-0.203606,0.272495,-0.369112,True
0.5936848,0.403041,-0.5897292,0.1415216,-0.1236794,-0.0971308,0.2729216,0.2322116,-0.560257,0.1641966,0.3934226,0.1877466,0.2809254,0.4952334,-0.2472668,-0.474475,-0.3997776,-0.0451724,0.2768924,-0.240716,0.0987342,-0.095794,0.065682,0.067182,0.480679,-0.0247028,0.00224,0.1790926,-0.0694042,-0.3131916,0.185358,-0.0797318,0.555023,0.381045,-0.541587,0.22832,-0.091809,-0.046659,0.28409,0.173135,-0.499141,0.128134,0.261208,0.325347,0.251484,0.379625,-0.228865,-0.438531,-0.407453,-0.041033,0.243305,-0.250129,0.115475,-0.172568,0.020125,0.085236,0.411713,0.010135,-0.045566,0.18015,-0.12798,-0.295771,0.071714,-0.163184,True
0.6511468,-0.206956,0.2455338,0.6065146,0.2133566,0.4265652,0.2761386,0.1362966,-0.310854,-0.2407224,0.2711426,-0.5795704,0.2527414,0.3097444,-0.4739378,0.082507,-0.0175666,0.0135096,-0.0898496,-0.114302,-0.4580898,0.35277,-0.337182,0.16037,-0.259208,-0.1643158,-0.117342,-0.0023604,0.2636978,-0.2154266,-0.100151,0.6346602,0.612485,-0.228952,0.293676,0.693313,0.245227,0.477037,0.287307,0.07722,-0.249738,-0.276785,0.138928,-0.44197,0.2233,0.194136,-0.455536,0.118451,-0.025242,0.017649,-0.123437,-0.123715,-0.441349,0.275996,-0.382739,0.178424,-0.328174,-0.129478,-0.165148,-0.001303,0.205122,-0.198006,-0.213795,0.551208,True
0.5839338,0.006423,0.3529568,0.5572566,0.1493296,0.3609922,0.4174496,0.1187586,-0.225121,-0.3465014,0.3782756,-0.6347314,0.4538074,0.2652154,-0.2840328,-0.116068,-0.0831236,0.0390816,0.2411434,0.007492,-0.4668018,0.211819,-0.333812,-0.039861,-0.192236,-0.2887968,-0.137406,-0.0265934,0.2446348,-0.1944156,-0.269896,0.6656522,0.545272,-0.015573,0.401099,0.644055,0.1812,0.411464,0.428618,0.059682,-0.164005,-0.382564,0.246061,-0.497131,0.424366,0.149607,-0.265631,-0.080124,-0.090799,0.043221,0.207556,-0.001921,-0.450061,0.135045,-0.379369,-0.021807,-0.261202,-0.253959,-0.185212,-0.025536,0.186059,-0.176995,-0.38354,0.5822,True
0.4422274,-0.3802066,-0.0876904,0.4547126,0.0910342,-0.1443014,-0.0589476,0.0601834,-0.1508648,-0.106641,-0.269772,-0.0458726,0.2840982,0.5354004,-0.1138534,-0.4006672,0.2791694,-0.0758064,-0.041066,-0.1375544,0.1685608,0.0217198,0.4349288,-0.3507492,0.4182648,-0.5773578,-0.2534418,0.0540618,-0.254171,-0.0868558,0.1611802,-0.1848902,0.445087,-0.455729,-0.07414,0.417918,0.02018,-0.139086,-0.065901,0.005212,-0.176175,-0.083362,-0.341624,0.099189,0.237954,0.38984,-0.158189,-0.366998,0.129894,-0.164709,-0.080383,-0.056291,0.237425,-0.020246,0.42809,-0.322462,0.500055,-0.592543,-0.349508,0.030626,-0.287923,-0.111248,0.21575,-0.221539,True
0.3079164,0.3303714,0.1206356,0.1524646,0.5246372,0.4892356,0.4173344,-0.1367566,0.1473992,-0.320888,0.294326,-0.4083916,0.2842382,0.1770874,-0.2190964,-0.3431062,0.1052584,0.3478026,0.123802,-0.3457774,-0.4179492,-0.0226102,-0.2114292,0.0486118,0.2592968,-0.2833348,0.3152992,0.4105908,0.090977,-0.2859508,-0.4056728,-0.1607842,0.310776,0.254849,0.134186,0.11567,0.453783,0.494451,0.410381,-0.191728,0.122089,-0.297609,0.222474,-0.26333,0.238094,0.031527,-0.263432,-0.309437,-0.044017,0.2589,0.084485,-0.264514,-0.349085,-0.064576,-0.218268,0.076899,0.341087,-0.29852,0.219233,0.387155,0.057225,-0.310343,-0.351103,-0.197433,True
0.3277244,0.2304964,-0.3402784,0.5281046,0.3736352,0.2442096,0.4481434,-0.0750786,-0.1405498,-0.215883,0.200478,-0.1372236,0.3872852,0.7375144,-0.0172344,-0.0519692,-0.3532336,0.1352446,-0.034594,-0.3310034,-0.3026202,0.4720878,0.0051028,0.1423508,0.2740298,-0.1104508,-0.2148678,-0.0277552,-0.01242,-0.0445268,-0.2312068,-0.0006182,0.330584,0.154974,-0.326728,0.49131,0.302781,0.249425,0.44119,-0.13005,-0.16586,-0.192604,0.128626,0.007838,0.341141,0.591954,-0.06157,-0.0183,-0.502509,0.046342,-0.073911,-0.24974,-0.233756,0.430122,-0.001736,0.170638,0.35582,-0.125636,-0.310934,-0.051191,-0.046172,-0.068919,-0.176637,-0.037267,True
0.3752404,-0.0178266,0.1185706,0.4516186,-0.0799838,0.1649316,0.4347214,0.2937784,-0.2990088,0.362093,0.307122,0.2384684,0.4143472,0.4135924,0.5577896,0.0352248,-0.1783676,0.0241586,0.177676,-0.2933024,-0.1617832,0.2855898,0.3814188,-0.2453312,-0.2312352,-0.1932068,-0.0563958,-0.2792692,-0.063758,-0.5927178,0.2147952,0.3962008,0.3781,-0.093349,0.132121,0.414824,-0.150838,0.170147,0.427768,0.238807,-0.324319,0.385372,0.23527,0.38353,0.368203,0.268032,0.513454,0.068894,-0.327643,-0.064744,0.138359,-0.212039,-0.092919,0.243624,0.37458,-0.217044,-0.149445,-0.208392,-0.152462,-0.302705,-0.09751,-0.61711,0.269365,0.359552,True
0.3353584,-0.2093326,-0.5408364,0.1212096,0.0484792,-0.1929924,0.2006684,0.0590194,-0.3709988,-0.180536,-0.339435,0.3244114,0.2641872,0.6338544,0.0734296,-0.4271052,0.2134704,-0.0990774,-0.014238,-0.4951584,0.1415488,0.4103708,0.4169348,-0.2730202,0.2224598,-0.5795598,-0.3117738,-0.0696772,-0.273081,-0.1792138,0.2179252,-0.3324632,0.338218,-0.284855,-0.527286,0.084415,-0.022375,-0.187777,0.193715,0.004048,-0.396309,-0.157257,-0.411287,0.469473,0.218043,0.488294,0.029094,-0.393436,0.064195,-0.18798,-0.053555,-0.413895,0.210413,0.368405,0.410096,-0.244733,0.30425,-0.594745,-0.40784,-0.093113,-0.306833,-0.203606,0.272495,-0.369112,True
0.6096254,-0.1534296,0.2801256,0.7301076,0.3160812,0.4718216,0.2942604,0.1321914,-0.2244278,-0.300064,0.21078,-0.5870316,0.2694442,0.3396964,-0.4112004,0.0847818,0.1240334,0.1065516,-0.08412,-0.2049784,-0.5102132,0.3179618,-0.3759002,0.1501368,-0.4099642,-0.1142928,-0.0690818,0.0221328,0.238874,-0.1736138,-0.2683648,0.5878568,0.612485,-0.228952,0.293676,0.693313,0.245227,0.477037,0.287307,0.07722,-0.249738,-0.276785,0.138928,-0.44197,0.2233,0.194136,-0.455536,0.118451,-0.025242,0.017649,-0.123437,-0.123715,-0.441349,0.275996,-0.382739,0.178424,-0.328174,-0.129478,-0.165148,-0.001303,0.205122,-0.198006,-0.213795,0.551208,True
0.5424124,0.0599494,0.3875486,0.6808496,0.2520542,0.4062486,0.4355714,0.1146534,-0.1386948,-0.405843,0.317913,-0.6421926,0.4705102,0.2951674,-0.2212954,-0.1137932,0.0584764,0.1321236,0.246873,-0.0831844,-0.5189252,0.1770108,-0.3725302,-0.0500942,-0.3429922,-0.2387738,-0.0891458,-0.0021002,0.219811,-0.1526028,-0.4381098,0.6188488,0.545272,-0.015573,0.401099,0.644055,0.1812,0.411464,0.428618,0.059682,-0.164005,-0.382564,0.246061,-0.497131,0.424366,0.149607,-0.265631,-0.080124,-0.090799,0.043221,0.207556,-0.001921,-0.450061,0.135045,-0.379369,-0.021807,-0.261202,-0.253959,-0.185212,-0.025536,0.186059,-0.176995,-0.38354,0.5822,True
0.1889562,-0.9036406,0.5567872,-0.1665674,0.1692316,-0.1628692,-0.1506938,-0.0129018,-0.0174184,0.0921718,0.2496036,-0.79973,0.1454672,0.018114,0.2496244,-0.4423476,-0.1363458,-0.0437598,-0.6038842,0.0967928,0.3979872,0.2610428,-0.2400152,0.233226,0.8574436,-0.5321098,0.6155164,-0.016438,0.1042416,-0.5328176,-0.0721482,-0.1871068,0.166847,-0.977878,0.561741,-0.20718,0.091926,-0.228861,-0.161614,-0.026676,-0.026673,0.138678,0.172947,-0.659183,0.05908,-0.011664,0.293765,-0.473566,-0.204293,-0.115744,-0.615074,0.142251,0.428677,0.170229,-0.199559,0.207312,0.884052,-0.535335,0.525656,0.000796,0.068412,-0.532066,-0.034885,-0.206175,True
0.3328852,0.3290864,0.1292322,0.1562826,0.5310886,0.5604428,0.4213012,-0.1779538,0.1313436,-0.3441152,0.2991306,-0.403877,0.3244812,0.061305,-0.3075726,-0.2782186,0.0239302,0.3308842,0.0956748,-0.3099722,-0.3797748,0.0262378,-0.2587242,0.102813,0.3144786,-0.2952948,0.3090934,0.369921,0.0930546,-0.3110946,-0.3883662,-0.1783648,0.310776,0.254849,0.134186,0.11567,0.453783,0.494451,0.410381,-0.191728,0.122089,-0.297609,0.222474,-0.26333,0.238094,0.031527,-0.263432,-0.309437,-0.044017,0.2589,0.084485,-0.264514,-0.349085,-0.064576,-0.218268,0.076899,0.341087,-0.29852,0.219233,0.387155,0.057225,-0.310343,-0.351103,-0.197433,True
0.1663382,-0.6814246,0.7024202,-0.0899484,0.2480456,-0.1224862,0.2505112,-0.2150418,-0.0554834,-0.1562202,0.3405506,-1.046779,0.0063392,-0.065245,-0.0264196,-0.3569296,0.0536282,0.1309902,-0.2183172,-0.1644772,-0.2288768,-0.0545282,-0.3777362,0.205068,0.4688956,-0.4695098,0.2821884,-0.05027,0.2464476,-0.3678776,-0.1427302,-0.0268138,0.144229,-0.755662,0.707374,-0.130561,0.17074,-0.188478,0.239591,-0.228816,-0.064738,-0.109714,0.263894,-0.906232,-0.080048,-0.095023,0.017721,-0.388148,-0.014319,0.059006,-0.229507,-0.119019,-0.198187,-0.145342,-0.33728,0.179154,0.495504,-0.472735,0.192328,-0.033036,0.210618,-0.367126,-0.105467,-0.045882,True
0.2874232,-0.7989126,0.3727332,-0.3523214,0.0733836,-0.0016132,-0.2503438,-0.0283278,-0.0043024,-0.0506992,0.2542346,-0.691296,0.2833692,0.005072,0.3356294,-0.3607416,-0.0286368,0.1160852,-0.6162282,-0.0396242,0.4804242,0.5350618,0.0124938,0.228525,0.8256496,-0.5144358,0.8174604,0.040939,0.0505766,-0.3885066,0.0725848,0.0329162,0.265314,-0.87315,0.377687,-0.392934,-0.003922,-0.067605,-0.261264,-0.042102,-0.013557,-0.004193,0.177578,-0.550749,0.196982,-0.024706,0.37977,-0.39196,-0.096584,0.044101,-0.627418,0.005834,0.511114,0.444248,0.05295,0.202611,0.852258,-0.517661,0.7276,0.058173,0.014747,-0.387755,0.109848,0.013848,True
-0.0309068,0.2712944,-0.1258018,0.5114636,0.4081716,0.5792568,0.1351322,0.1149292,-0.0067634,-0.4798612,0.4572866,-0.041055,-0.0882748,0.082366,0.0337004,-0.3041456,-0.0887838,-0.6157798,-0.4161652,-0.3026542,-0.0117498,0.5683978,-0.1959302,0.109172,-0.0408894,-0.4063848,-0.2197396,-0.322492,-0.1923454,-0.1902576,0.1921568,0.1753872,-0.053016,0.197057,-0.120848,0.470851,0.330866,0.513265,0.124212,0.101155,-0.016018,-0.433355,0.38063,0.099492,-0.174662,0.052588,0.077841,-0.335364,-0.156731,-0.687764,-0.427355,-0.257196,0.01894,0.477584,-0.155474,0.083258,-0.014281,-0.40961,-0.3096,-0.305258,-0.228175,-0.189506,0.22942,0.156319,True
0.3603272,-0.2106176,-0.5322398,0.1250276,0.0549306,-0.1217852,0.2046352,0.0178222,-0.3870544,-0.2037632,-0.3346304,0.328926,0.3044302,0.518072,-0.0150466,-0.3622176,0.1321422,-0.1159958,-0.0423652,-0.4593532,0.1797232,0.4592188,0.3696398,-0.218819,0.2776416,-0.5915198,-0.3179796,-0.110347,-0.2710034,-0.2043576,0.2352318,-0.3500438,0.338218,-0.284855,-0.527286,0.084415,-0.022375,-0.187777,0.193715,0.004048,-0.396309,-0.157257,-0.411287,0.469473,0.218043,0.488294,0.029094,-0.393436,0.064195,-0.18798,-0.053555,-0.413895,0.210413,0.368405,0.410096,-0.244733,0.30425,-0.594745,-0.40784,-0.093113,-0.306833,-0.203606,0.272495,-0.369112,True
0.6345942,-0.1547146,0.2887222,0.7339256,0.3225326,0.5430288,0.2982272,0.0909942,-0.2404834,-0.3232912,0.2155846,-0.582517,0.3096872,0.223914,-0.4996766,0.1496694,0.0427052,0.0896332,-0.1122472,-0.1691732,-0.4720388,0.3668098,-0.4231952,0.204338,-0.3547824,-0.1262528,-0.0752876,-0.018537,0.2409516,-0.1987576,-0.2510582,0.5702762,0.612485,-0.228952,0.293676,0.693313,0.245227,0.477037,0.287307,0.07722,-0.249738,-0.276785,0.138928,-0.44197,0.2233,0.194136,-0.455536,0.118451,-0.025242,0.017649,-0.123437,-0.123715,-0.441349,0.275996,-0.382739,0.178424,-0.328174,-0.129478,-0.165148,-0.001303,0.205122,-0.198006,-0.213795,0.551208,True
0.4601342,0.2820284,-0.1912138,0.3936916,0.2120196,0.2705388,0.3835882,-0.2480168,-0.1775774,-0.2229842,0.1482666,-0.009186,0.4715722,0.419887,-0.3481736,-0.0559606,-0.1747188,-0.1231538,-0.0710942,-0.2979612,-0.2669958,0.0992618,0.0049688,-0.007141,0.2758556,-0.1556968,-0.2316016,-0.075928,-0.2230674,-0.4701996,-0.1777662,-0.1098438,0.438025,0.207791,-0.18626,0.353079,0.134714,0.204547,0.372668,-0.261791,-0.186832,-0.176478,0.07161,0.131361,0.385185,0.390109,-0.304033,-0.087179,-0.242666,-0.195138,-0.082284,-0.252503,-0.236306,0.008448,0.045425,-0.033055,0.302464,-0.158922,-0.321462,-0.058694,-0.258897,-0.469448,-0.140503,-0.128912,True
0.5673812,0.0586644,0.3961452,0.6846676,0.2585056,0.4774558,0.4395382,0.0734562,-0.1547504,-0.4290702,0.3227176,-0.637678,0.5107532,0.179385,-0.3097716,-0.0489056,-0.0228518,0.1152052,0.2187458,-0.0473792,-0.4807508,0.2258588,-0.4198252,0.004107,-0.2878104,-0.2507338,-0.0953516,-0.04277,0.2218886,-0.1777466,-0.4208032,0.6012682,0.545272,-0.015573,0.401099,0.644055,0.1812,0.411464,0.428618,0.059682,-0.164005,-0.382564,0.246061,-0.497131,0.424366,0.149607,-0.265631,-0.080124,-0.090799,0.043221,0.207556,-0.001921,-0.450061,0.135045,-0.379369,-0.021807,-0.261202,-0.253959,-0.185212,-0.025536,0.186059,-0.176995,-0.38354,0.5822,True
0.1384146,-0.9049184,0.5375092,-0.1672098,0.2019858,-0.1629376,-0.1597518,0.018692,-0.0163254,0.136711,0.233319,-0.788061,0.1087424,0.0221426,0.251232,-0.4691042,-0.1514182,-0.0682994,-0.5602412,0.0688718,0.4032404,0.2125684,-0.2512424,0.2628084,0.8701122,-0.5244244,0.644465,-0.0079036,0.1071926,-0.5253732,-0.0966766,-0.1921208,0.166847,-0.977878,0.561741,-0.20718,0.091926,-0.228861,-0.161614,-0.026676,-0.026673,0.138678,0.172947,-0.659183,0.05908,-0.011664,0.293765,-0.473566,-0.204293,-0.115744,-0.615074,0.142251,0.428677,0.170229,-0.199559,0.207312,0.884052,-0.535335,0.525656,0.000796,0.068412,-0.532066,-0.034885,-0.206175,True
0.3074226,-0.1316474,0.2208082,0.1436552,0.5725438,0.6555674,0.2681572,0.065103,-0.2410554,-0.402371,0.100222,-0.793437,-0.2355536,-0.3015154,-0.214294,-0.6162662,0.0316608,-0.3014954,-0.2781352,-0.1212072,-0.3422126,0.6142894,-0.6718494,0.4789894,0.0757802,-0.1624484,-0.017048,0.2524774,-0.0613444,-0.6438572,0.0266544,-0.2408418,0.335855,-0.204607,0.24504,0.103685,0.462484,0.589644,0.266295,0.019735,-0.251403,-0.400404,0.03985,-0.664559,-0.285216,-0.335322,-0.171761,-0.620728,-0.021214,-0.34894,-0.332968,-0.047828,-0.316776,0.57195,-0.620166,0.423493,0.08972,-0.173359,-0.135857,0.261177,-0.100125,-0.65055,0.088446,-0.254896,True
0.1658066,-0.6526274,0.4971882,-0.1348128,0.4256508,0.2759934,0.0349572,0.043002,-0.0714844,-0.190479,0.243609,-0.838069,-0.0990246,-0.2407704,-0.077264,-0.6361952,-0.1399052,-0.1658974,-0.4203352,0.0744148,-0.2542776,0.2439384,-0.6050394,0.4411254,0.4947792,-0.4597264,0.3377,-0.0538316,0.2345946,-0.6179412,0.0662484,-0.1412678,0.194239,-0.725587,0.52142,-0.174783,0.315591,0.21007,0.033095,-0.002366,-0.081832,-0.188512,0.183237,-0.709191,-0.148687,-0.274577,-0.034731,-0.640657,-0.19278,-0.213342,-0.475168,0.147794,-0.228841,0.201599,-0.553356,0.385629,0.508719,-0.470637,0.218891,-0.045132,0.195814,-0.624634,0.12804,-0.155322,True
0.2823436,0.3278086,0.1099542,0.1556402,0.5638428,0.5603744,0.4122432,-0.14636,0.1324366,-0.299576,0.282846,-0.392208,0.2877564,0.0653336,-0.305965,-0.3049752,0.0088578,0.3063446,0.1393178,-0.3378932,-0.3745216,-0.0222366,-0.2699514,0.1323954,0.3271472,-0.2876094,0.338042,0.3784554,0.0960056,-0.3036502,-0.4128946,-0.1833788,0.310776,0.254849,0.134186,0.11567,0.453783,0.494451,0.410381,-0.191728,0.122089,-0.297609,0.222474,-0.26333,0.238094,0.031527,-0.263432,-0.309437,-0.044017,0.2589,0.084485,-0.264514,-0.349085,-0.064576,-0.218268,0.076899,0.341087,-0.29852,0.219233,0.387155,0.057225,-0.310343,-0.351103,-0.197433,True
0.1157966,-0.6827024,0.6831422,-0.0905908,0.2807998,-0.1225546,0.2414532,-0.183448,-0.0543904,-0.111681,0.324266,-1.03511,-0.0303856,-0.0612164,-0.024812,-0.3836862,0.0385558,0.1064506,-0.1746742,-0.1923982,-0.2236236,-0.1030026,-0.3889634,0.2346504,0.4815642,-0.4618244,0.311137,-0.0417356,0.2493986,-0.3604332,-0.1672586,-0.0318278,0.144229,-0.755662,0.707374,-0.130561,0.17074,-0.188478,0.239591,-0.228816,-0.064738,-0.109714,0.263894,-0.906232,-0.080048,-0.095023,0.017721,-0.388148,-0.014319,0.059006,-0.229507,-0.119019,-0.198187,-0.145342,-0.33728,0.179154,0.495504,-0.472735,0.192328,-0.033036,0.210618,-0.367126,-0.105467,-0.045882,True
0.0240906,-0.1014384,0.1452042,0.0120932,0.4879068,0.0085264,0.2568962,-0.088595,-0.3485604,-0.185908,-0.002676,-0.703201,-0.0017166,-0.3408124,-0.254005,-0.7031942,0.0043718,0.1207466,-0.1301642,0.1785468,-0.1296116,-0.0305416,-0.2061174,0.4495864,0.3063562,-0.2968144,0.20258,0.1004554,0.1725296,-0.7155562,0.0744984,-0.1043988,0.052523,-0.174398,0.169436,-0.027877,0.377847,-0.057397,0.255034,-0.133963,-0.358908,-0.183941,-0.063048,-0.574323,-0.051379,-0.374619,-0.211472,-0.707656,-0.048503,0.073302,-0.184997,0.251926,-0.104175,-0.072881,-0.154434,0.39409,0.320296,-0.307725,0.083771,0.109155,0.133749,-0.722249,0.13629,-0.118453,True
-0.0814484,0.2700166,-0.1450798,0.5108212,0.4409258,0.5791884,0.1260742,0.146523,-0.0056704,-0.435322,0.441002,-0.029386,-0.1249996,0.0863946,0.035308,-0.3309022,-0.1038562,-0.6403194,-0.3725222,-0.3305752,-0.0064966,0.5199234,-0.2071574,0.1387544,-0.0282208,-0.3986994,-0.190791,-0.3139576,-0.1893944,-0.1828132,0.1676284,0.1703732,-0.053016,0.197057,-0.120848,0.470851,0.330866,0.513265,0.124212,0.101155,-0.016018,-0.433355,0.38063,0.099492,-0.174662,0.052588,0.077841,-0.335364,-0.156731,-0.687764,-0.427355,-0.257196,0.01894,0.477584,-0.155474,0.083258,-0.014281,-0.40961,-0.3096,-0.305258,-0.228175,-0.189506,0.22942,0.156319,True
0.5840526,-0.1559924,0.2694442,0.7332832,0.3552868,0.5429604,0.2891692,0.122588,-0.2393904,-0.278752,0.1993,-0.570848,0.2729624,0.2279426,-0.498069,0.1229128,0.0276328,0.0650936,-0.0686042,-0.1970942,-0.4667856,0.3183354,-0.4344224,0.2339204,-0.3421138,-0.1185674,-0.046339,-0.0100026,0.2439026,-0.1913132,-0.2755866,0.5652622,0.612485,-0.228952,0.293676,0.693313,0.245227,0.477037,0.287307,0.07722,-0.249738,-0.276785,0.138928,-0.44197,0.2233,0.194136,-0.455536,0.118451,-0.025242,0.017649,-0.123437,-0.123715,-0.441349,0.275996,-0.382739,0.178424,-0.328174,-0.129478,-0.165148,-0.001303,0.205122,-0.198006,-0.213795,0.551208,True
0.5168396,0.0573866,0.3768672,0.6840252,0.2912598,0.4773874,0.4304802,0.10505,-0.1536574,-0.384531,0.306433,-0.626009,0.4740284,0.1834136,-0.308164,-0.0756622,-0.0379242,0.0906656,0.2623888,-0.0753002,-0.4754976,0.1773844,-0.4310524,0.0336894,-0.2751418,-0.2430484,-0.066403,-0.0342356,0.2248396,-0.1703022,-0.4453316,0.5962542,0.545272,-0.015573,0.401099,0.644055,0.1812,0.411464,0.428618,0.059682,-0.164005,-0.382564,0.246061,-0.497131,0.424366,0.149607,-0.265631,-0.080124,-0.090799,0.043221,0.207556,-0.001921,-0.450061,0.135045,-0.379369,-0.021807,-0.261202,-0.253959,-0.185212,-0.025536,0.186059,-0.176995,-0.38354,0.5822,True
0.460128,0.237907,-0.1915652,0.3688536,0.1519086,0.2359094,0.3887442,-0.1997958,-0.2570294,-0.2085964,0.0862456,0.0233238,0.379355,0.442463,-0.3056914,-0.0171342,-0.1973272,-0.1908042,-0.048498,-0.3226608,-0.300651,0.0971384,-0.0168676,-0.0364046,0.3285638,-0.1330054,-0.2059576,-0.106369,-0.2494488,-0.4624354,-0.1048168,-0.1427934,0.438025,0.207791,-0.18626,0.353079,0.134714,0.204547,0.372668,-0.261791,-0.186832,-0.176478,0.07161,0.131361,0.385185,0.390109,-0.304033,-0.087179,-0.242666,-0.195138,-0.082284,-0.252503,-0.236306,0.008448,0.045425,-0.033055,0.302464,-0.158922,-0.321462,-0.058694,-0.258897,-0.469448,-0.140503,-0.128912,True
-0.5310838,0.0079192,-0.0223728,-0.0857542,-0.5740226,0.849193,-0.214316,0.1103666,0.0016564,-0.7297562,-0.4072336,-0.2367284,-0.3454152,0.7236002,-0.2478202,-0.1089048,0.5226462,0.2041096,-0.041118,-0.5552898,0.2374408,0.2156632,0.8914276,-0.5691242,0.5405782,-0.2360104,0.3619646,0.310297,-0.250588,-0.5322468,-0.7157258,-0.2790812,-0.514829,0.037029,-0.03179,-0.162531,-0.558299,0.767416,-0.226659,0.064955,0.061826,-0.577453,-0.349684,-0.164584,-0.368099,0.644383,-0.247532,-0.096189,0.552819,0.167575,0.002669,-0.460909,0.274906,0.186309,0.884419,-0.534912,0.479505,-0.208169,0.274091,0.340914,-0.25544,-0.608612,-0.702744,-0.311621,True
0.3096032,0.0386332,0.0094852,0.1560238,-0.0595926,-0.123517,0.148294,0.0568396,-0.7066146,-0.3421402,-0.2914096,-0.2024394,0.0975538,0.0381772,-0.1197262,-0.5082338,0.0172172,-0.0094374,-0.020228,0.0655552,0.0447168,0.1214022,0.0815086,-0.2716672,0.4592502,-0.2571044,0.0423886,-0.246938,-0.262422,0.0438772,-0.0155558,-0.4301722,0.325858,0.067743,6.8e-05,0.079247,-0.043869,-0.205294,0.135951,0.011428,-0.646445,-0.189837,-0.23386,-0.130295,0.07487,-0.04104,-0.119438,-0.495518,0.04739,-0.045972,0.023559,0.159936,0.082182,0.092048,0.0745,-0.237455,0.398177,-0.229263,-0.045485,-0.216321,-0.267274,-0.032488,-0.002574,-0.462712,True
0.1279742,-0.7847718,0.7167912,-0.0537842,0.1550164,-0.106701,0.251934,-0.1834044,-0.1249076,-0.2620172,0.2063444,-0.9783764,-0.0573642,-0.0158058,0.0174328,-0.4008638,-0.0444918,0.0955406,-0.273294,-0.2133998,-0.2356522,-0.1159878,-0.3302714,0.1449418,0.5565772,-0.5005764,0.2802016,-0.063653,0.21547,-0.2907608,-0.1184488,-0.0133422,0.144229,-0.755662,0.707374,-0.130561,0.17074,-0.188478,0.239591,-0.228816,-0.064738,-0.109714,0.263894,-0.906232,-0.080048,-0.095023,0.017721,-0.388148,-0.014319,0.059006,-0.229507,-0.119019,-0.198187,-0.145342,-0.33728,0.179154,0.495504,-0.472735,0.192328,-0.033036,0.210618,-0.367126,-0.105467,-0.045882,True
0.4217702,0.1786812,-0.1768428,0.4298558,0.1189904,0.286324,0.385011,-0.2163794,-0.2470016,-0.3287812,0.0140604,0.0592166,0.4078688,0.4693262,-0.3043212,-0.0998948,-0.2728388,-0.1586034,-0.126071,-0.3468838,-0.2737712,0.0378022,0.0524336,-0.0672672,0.3635372,-0.1867634,-0.2335884,-0.089311,-0.254045,-0.3930828,-0.1534848,-0.0963722,0.438025,0.207791,-0.18626,0.353079,0.134714,0.204547,0.372668,-0.261791,-0.186832,-0.176478,0.07161,0.131361,0.385185,0.390109,-0.304033,-0.087179,-0.242666,-0.195138,-0.082284,-0.252503,-0.236306,0.008448,0.045425,-0.033055,0.302464,-0.158922,-0.321462,-0.058694,-0.258897,-0.469448,-0.140503,-0.128912,True
0.5290172,-0.0446828,0.4105162,0.7208318,0.1654764,0.493241,0.440961,0.1050936,-0.2241746,-0.5348672,0.1885114,-0.5692754,0.4470498,0.2288242,-0.2659192,-0.0928398,-0.1209718,0.0797556,0.163769,-0.0963018,-0.4875262,0.1643992,-0.3723604,-0.0560192,-0.2001288,-0.2818004,-0.0973384,-0.056153,0.190911,-0.1006298,-0.3965218,0.6147398,0.545272,-0.015573,0.401099,0.644055,0.1812,0.411464,0.428618,0.059682,-0.164005,-0.382564,0.246061,-0.497131,0.424366,0.149607,-0.265631,-0.080124,-0.090799,0.043221,0.207556,-0.001921,-0.450061,0.135045,-0.379369,-0.021807,-0.261202,-0.253959,-0.185212,-0.025536,0.186059,-0.176995,-0.38354,0.5822,True
0.5104516,-0.4165808,-0.128606,0.2030676,0.2744764,0.4092208,0.0408412,0.1844102,-0.2638436,0.1914704,0.1197082,-0.2794478,0.636436,0.5733556,0.100628,-0.2570974,-0.1869002,0.2657764,-0.3309246,-0.0170972,-0.0334562,0.460048,-0.0123256,0.3983928,0.3883712,-0.8097832,0.2167344,0.3584866,-0.083065,-0.1867658,-0.0449712,-0.1783902,0.454193,-0.46073,-0.07574,0.177483,0.217056,0.370406,-0.010883,0.088036,-0.215544,0.211865,0.133801,-0.136426,0.587795,0.514722,0.102353,-0.261419,-0.302946,0.245642,-0.359171,0.018879,-0.032155,0.459666,0.006704,0.373947,0.354746,-0.796034,0.163438,0.343511,-0.128415,-0.202494,-0.091772,-0.202276,True
0.4605296,0.1912102,-0.179255,0.0564326,-0.2060976,-0.2192092,0.3479642,0.1753272,-0.3388246,-0.6494096,-0.2730948,0.1796902,0.07528,0.3393486,-0.305734,-0.3039324,0.8266218,0.3024544,0.1435794,-0.1145892,0.1043188,0.03116,0.5652284,-0.5165392,0.3117132,-0.1007932,0.2996274,0.0948366,-0.475497,-0.2436738,-0.4386382,-0.4526232,0.404271,0.147061,-0.126389,0.030848,-0.263518,-0.258024,0.29624,0.078953,-0.290525,-0.629015,-0.259002,0.322712,0.026639,0.280715,-0.304009,-0.308254,0.710576,0.28232,0.115333,-0.078613,0.10562,0.030778,0.584258,-0.540985,0.278088,-0.087044,0.246331,0.079861,-0.520847,-0.259402,-0.485439,-0.476509,True
0.6112816,0.4251942,-0.594453,0.2539046,-0.0343886,-0.0078442,0.3358142,0.2695092,-0.5474406,0.1077394,0.2471152,0.1823252,0.300125,0.4382586,-0.23059,-0.4342094,-0.2914072,-0.0208986,0.2715514,-0.2861052,0.1141738,-0.172186,0.0010954,0.1096818,0.4453382,-0.0036142,0.0077304,0.1951256,-0.08263,-0.2800428,0.1185148,-0.1392982,0.555023,0.381045,-0.541587,0.22832,-0.091809,-0.046659,0.28409,0.173135,-0.499141,0.128134,0.261208,0.325347,0.251484,0.379625,-0.228865,-0.438531,-0.407453,-0.041033,0.243305,-0.250129,0.115475,-0.172568,0.020125,0.085236,0.411713,0.010135,-0.045566,0.18015,-0.12798,-0.295771,0.071714,-0.163184,True
0.6687436,-0.1848028,0.24081,0.7188976,0.3026474,0.5158518,0.3390312,0.1735942,-0.2980376,-0.2971796,0.1248352,-0.5849918,0.271941,0.2527696,-0.457261,0.1227726,0.0908038,0.0377834,-0.0951906,-0.1596912,-0.4426502,0.276378,-0.4017686,0.2028698,-0.2945488,-0.1432272,-0.1118516,0.0136726,0.250472,-0.1822778,-0.1669942,0.5750938,0.612485,-0.228952,0.293676,0.693313,0.245227,0.477037,0.287307,0.07722,-0.249738,-0.276785,0.138928,-0.44197,0.2233,0.194136,-0.455536,0.118451,-0.025242,0.017649,-0.123437,-0.123715,-0.441349,0.275996,-0.382739,0.178424,-0.328174,-0.129478,-0.165148,-0.001303,0.205122,-0.198006,-0.213795,0.551208,True
0.6015306,0.0285762,0.348233,0.6696396,0.2386204,0.4502788,0.4803422,0.1560562,-0.2123046,-0.4029586,0.2319682,-0.6401528,0.473007,0.2082406,-0.267356,-0.0758024,0.0252468,0.0633554,0.2358024,-0.0378972,-0.4513622,0.135427,-0.3983986,0.0026388,-0.2275768,-0.2677082,-0.1319156,-0.0105604,0.231409,-0.1612668,-0.3367392,0.6060858,0.545272,-0.015573,0.401099,0.644055,0.1812,0.411464,0.428618,0.059682,-0.164005,-0.382564,0.246061,-0.497131,0.424366,0.149607,-0.265631,-0.080124,-0.090799,0.043221,0.207556,-0.001921,-0.450061,0.135045,-0.379369,-0.021807,-0.261202,-0.253959,-0.185212,-0.025536,0.186059,-0.176995,-0.38354,0.5822,True
0.3281498,0.320418,0.1361366,0.152834,0.497075,0.5724858,0.4213622,-0.2027406,0.127342,-0.3266478,0.3210968,-0.4005764,0.3147912,0.0476996,-0.3111586,-0.3262806,-0.0121412,0.2870088,0.1265654,-0.346788,-0.359664,0.0325378,-0.2493402,0.1022774,0.2905246,-0.2877334,0.31453,0.3941658,0.041237,-0.2732152,-0.3617978,-0.177605,0.310776,0.254849,0.134186,0.11567,0.453783,0.494451,0.410381,-0.191728,0.122089,-0.297609,0.222474,-0.26333,0.238094,0.031527,-0.263432,-0.309437,-0.044017,0.2589,0.084485,-0.264514,-0.349085,-0.064576,-0.218268,0.076899,0.341087,-0.29852,0.219233,0.387155,0.057225,-0.310343,-0.351103,-0.197433,True
0.2599258,0.014555,0.0708156,-0.18041,0.270489,0.2298478,0.7080142,-0.3524716,-0.005975,-0.2269728,0.3892708,-0.4139884,0.3520972,0.0013366,-0.4351516,-0.5369006,-0.1264332,0.0219128,0.2098404,-0.183011,-0.153147,-0.0188572,-0.1693682,0.0396904,0.3538836,-0.2123314,0.117999,0.1501408,-0.016968,-0.3139912,-0.0943068,-0.156782,0.242552,-0.051014,0.068865,-0.217574,0.227197,0.151813,0.697033,-0.341459,-0.011228,-0.197934,0.290648,-0.276742,0.2754,-0.014836,-0.387425,-0.520057,-0.158309,-0.006196,0.16776,-0.100737,-0.142568,-0.115971,-0.138296,0.014312,0.404446,-0.223118,0.022702,0.14313,-0.00098,-0.351119,-0.083612,-0.17661,True
0.6298588,-0.163383,0.2956266,0.730477,0.288519,0.5550718,0.2982882,0.0662074,-0.244485,-0.3058238,0.2375508,-0.5792164,0.2999972,0.2103086,-0.5032626,0.1016074,0.0066338,0.0457578,-0.0813566,-0.205989,-0.451928,0.3731098,-0.4138112,0.2038024,-0.3787364,-0.1186914,-0.069851,0.0057078,0.189134,-0.1608782,-0.2244898,0.571036,0.612485,-0.228952,0.293676,0.693313,0.245227,0.477037,0.287307,0.07722,-0.249738,-0.276785,0.138928,-0.44197,0.2233,0.194136,-0.455536,0.118451,-0.025242,0.017649,-0.123437,-0.123715,-0.441349,0.275996,-0.382739,0.178424,-0.328174,-0.129478,-0.165148,-0.001303,0.205122,-0.198006,-0.213795,0.551208,True
0.4553988,0.27336,-0.1843094,0.390243,0.178006,0.2825818,0.3836492,-0.2728036,-0.181579,-0.2055168,0.1702328,-0.0058854,0.4618822,0.4062816,-0.3517596,-0.1040226,-0.2107902,-0.1670292,-0.0402036,-0.334777,-0.246885,0.1055618,0.0143528,-0.0076766,0.2519016,-0.1481354,-0.226165,-0.0516832,-0.274885,-0.4323202,-0.1511978,-0.109084,0.438025,0.207791,-0.18626,0.353079,0.134714,0.204547,0.372668,-0.261791,-0.186832,-0.176478,0.07161,0.131361,0.385185,0.390109,-0.304033,-0.087179,-0.242666,-0.195138,-0.082284,-0.252503,-0.236306,0.008448,0.045425,-0.033055,0.302464,-0.158922,-0.321462,-0.058694,-0.258897,-0.469448,-0.140503,-0.128912,True
0.5626458,0.049996,0.4030496,0.681219,0.224492,0.4894988,0.4395992,0.0486694,-0.158752,-0.4116028,0.3446838,-0.6343774,0.5010632,0.1657796,-0.3133576,-0.0969676,-0.0589232,0.0713298,0.2496364,-0.084195,-0.46064,0.2321588,-0.4104412,0.0035714,-0.3117644,-0.2431724,-0.089915,-0.0185252,0.170071,-0.1398672,-0.3942348,0.602028,0.545272,-0.015573,0.401099,0.644055,0.1812,0.411464,0.428618,0.059682,-0.164005,-0.382564,0.246061,-0.497131,0.424366,0.149607,-0.265631,-0.080124,-0.090799,0.043221,0.207556,-0.001921,-0.450061,0.135045,-0.379369,-0.021807,-0.261202,-0.253959,-0.185212,-0.025536,0.186059,-0.176995,-0.38354,0.5822,True
0.2794228,0.054964,-0.1604264,-0.243518,0.049405,0.3710948,0.1371672,-0.3828266,-0.146448,0.0627752,0.7804918,-0.3116394,0.6573472,0.3651456,-0.0575386,-0.2836776,0.2283348,-0.1772292,0.2535234,-0.219068,0.24705,0.8815328,-0.0347522,0.2776664,0.0731686,0.1147136,0.117644,0.2008978,0.049603,0.3620278,0.1592492,0.129664,0.262049,-0.010605,-0.162377,-0.280682,0.006113,0.29306,0.126186,-0.371814,-0.151701,0.091814,0.681869,-0.174393,0.58065,0.348973,-0.009812,-0.266834,0.196459,-0.205338,0.211443,-0.136794,0.257629,0.784419,-0.00368,0.252288,0.123731,0.103927,0.022347,0.193887,0.065591,0.3249,0.169944,0.109836,True
0.1438576,-0.9715458,0.5835052,-0.1375866,0.133634,-0.1371644,-0.1501646,0.0266514,-0.0669558,0.0519738,0.1598522,-0.825105,0.0682424,0.0346132,0.234794,-0.472198,-0.1997346,-0.091468,-0.6649338,0.104798,0.3637016,0.1861692,-0.2403478,0.2105424,0.9334288,-0.552647,0.648956,-0.0341332,0.075825,-0.521635,-0.1191298,-0.187769,0.166847,-0.977878,0.561741,-0.20718,0.091926,-0.228861,-0.161614,-0.026676,-0.026673,0.138678,0.172947,-0.659183,0.05908,-0.011664,0.293765,-0.473566,-0.204293,-0.115744,-0.615074,0.142251,0.428677,0.170229,-0.199559,0.207312,0.884052,-0.535335,0.525656,0.000796,0.068412,-0.532066,-0.034885,-0.206175,True
0.1712496,-0.7192548,0.5431842,-0.1051896,0.357299,0.3017666,0.0445444,0.0509614,-0.1221148,-0.2752162,0.1701422,-0.875113,-0.1395246,-0.2282998,-0.093702,-0.639289,-0.1882216,-0.189066,-0.5250278,0.110341,-0.2938164,0.2175392,-0.5941448,0.3888594,0.5580958,-0.487949,0.342191,-0.0800612,0.203227,-0.614203,0.0437952,-0.136916,0.194239,-0.725587,0.52142,-0.174783,0.315591,0.21007,0.033095,-0.002366,-0.081832,-0.188512,0.183237,-0.709191,-0.148687,-0.274577,-0.034731,-0.640657,-0.19278,-0.213342,-0.475168,0.147794,-0.228841,0.201599,-0.553356,0.385629,0.508719,-0.470637,0.218891,-0.045132,0.195814,-0.624634,0.12804,-0.155322,True
0.2877866,0.2611812,0.1559502,0.1852634,0.495491,0.5861476,0.4218304,-0.1384006,0.0818062,-0.3843132,0.2093792,-0.429252,0.2472564,0.0778042,-0.322403,-0.308069,-0.0394586,0.283176,0.0346252,-0.301967,-0.4140604,-0.0486358,-0.2590568,0.0801294,0.3904638,-0.315832,0.342533,0.3522258,0.064638,-0.299912,-0.4353478,-0.179027,0.310776,0.254849,0.134186,0.11567,0.453783,0.494451,0.410381,-0.191728,0.122089,-0.297609,0.222474,-0.26333,0.238094,0.031527,-0.263432,-0.309437,-0.044017,0.2589,0.084485,-0.264514,-0.349085,-0.064576,-0.218268,0.076899,0.341087,-0.29852,0.219233,0.387155,0.057225,-0.310343,-0.351103,-0.197433,True
0.1212396,-0.7493298,0.7291382,-0.0609676,0.212448,-0.0967814,0.2510404,-0.1754886,-0.1050208,-0.1964182,0.2507992,-1.072154,-0.0708856,-0.0487458,-0.04125,-0.38678,-0.0097606,0.083282,-0.2793668,-0.156472,-0.2631624,-0.1294018,-0.3780688,0.1823844,0.5448808,-0.490047,0.315628,-0.0679652,0.218031,-0.356695,-0.1897118,-0.027476,0.144229,-0.755662,0.707374,-0.130561,0.17074,-0.188478,0.239591,-0.228816,-0.064738,-0.109714,0.263894,-0.906232,-0.080048,-0.095023,0.017721,-0.388148,-0.014319,0.059006,-0.229507,-0.119019,-0.198187,-0.145342,-0.33728,0.179154,0.495504,-0.472735,0.192328,-0.033036,0.210618,-0.367126,-0.105467,-0.045882,True
0.2195626,-0.0446818,0.0906292,-0.1479806,0.268905,0.2435096,0.7084824,-0.2881316,-0.0515108,-0.2846382,0.2775532,-0.442664,0.2845624,0.0314412,-0.446396,-0.518689,-0.1537506,0.01808,0.1179002,-0.13819,-0.2075434,-0.1000308,-0.1790848,0.0175424,0.4538228,-0.24043,0.146002,0.1082008,0.006433,-0.340688,-0.1678568,-0.158204,0.242552,-0.051014,0.068865,-0.217574,0.227197,0.151813,0.697033,-0.341459,-0.011228,-0.197934,0.290648,-0.276742,0.2754,-0.014836,-0.387425,-0.520057,-0.158309,-0.006196,0.16776,-0.100737,-0.142568,-0.115971,-0.138296,0.014312,0.404446,-0.223118,0.022702,0.14313,-0.00098,-0.351119,-0.083612,-0.17661,True
0.5894956,-0.2226198,0.3154402,0.7629064,0.286935,0.5687336,0.2987564,0.1305474,-0.2900208,-0.3634892,0.1258332,-0.607892,0.2324624,0.2404132,-0.514507,0.119819,-0.0206836,0.041925,-0.1732968,-0.161168,-0.5063244,0.2919362,-0.4235278,0.1816544,-0.2787972,-0.14679,-0.041848,-0.0362322,0.212535,-0.187575,-0.2980398,0.569614,0.612485,-0.228952,0.293676,0.693313,0.245227,0.477037,0.287307,0.07722,-0.249738,-0.276785,0.138928,-0.44197,0.2233,0.194136,-0.455536,0.118451,-0.025242,0.017649,-0.123437,-0.123715,-0.441349,0.275996,-0.382739,0.178424,-0.328174,-0.129478,-0.165148,-0.001303,0.205122,-0.198006,-0.213795,0.551208,True
0.4150356,0.2141232,-0.1644958,0.4226724,0.176422,0.2962436,0.3841174,-0.2084636,-0.2271148,-0.2631822,0.0585152,-0.034561,0.3943474,0.4363862,-0.363004,-0.085811,-0.2381076,-0.170862,-0.1321438,-0.289956,-0.3012814,0.0243882,0.0046362,-0.0298246,0.3518408,-0.176234,-0.198162,-0.0936232,-0.251484,-0.459017,-0.2247478,-0.110506,0.438025,0.207791,-0.18626,0.353079,0.134714,0.204547,0.372668,-0.261791,-0.186832,-0.176478,0.07161,0.131361,0.385185,0.390109,-0.304033,-0.087179,-0.242666,-0.195138,-0.082284,-0.252503,-0.236306,0.008448,0.045425,-0.033055,0.302464,-0.158922,-0.321462,-0.058694,-0.258897,-0.469448,-0.140503,-0.128912,True
-0.1930704,0.1198132,0.3127082,0.3125474,0.042271,-0.5747884,0.2481854,-0.1617116,-0.6591578,-0.2624752,0.1333202,-0.572396,-0.0662186,-0.5202278,0.057041,-0.544108,-0.0454126,0.230645,0.0253152,0.239774,0.0846336,0.1837352,-0.1944778,0.1377104,0.6886288,0.008071,0.001778,-0.3815372,-0.23711,-0.28475,0.0115062,-0.623948,-0.170081,0.113481,0.290944,0.242954,0.000563,-0.666485,0.236736,-0.215039,-0.618875,-0.175771,0.146415,-0.406474,-0.075381,-0.566505,0.116012,-0.545476,-0.049971,0.206369,0.075175,0.277227,0.149609,0.167795,-0.153689,0.13448,0.639252,0.025383,-0.121522,-0.346608,-0.244523,-0.295181,0.095751,-0.642354,True
0.5222826,-0.0092408,0.4228632,0.7136484,0.222908,0.5031606,0.4400674,0.1130094,-0.2042878,-0.4692682,0.2329662,-0.663053,0.4335284,0.1958842,-0.324602,-0.078756,-0.0862406,0.067497,0.1576962,-0.039374,-0.5150364,0.1509852,-0.4201578,-0.0185766,-0.2118252,-0.271271,-0.061912,-0.0604652,0.193472,-0.166564,-0.4677848,0.600606,0.545272,-0.015573,0.401099,0.644055,0.1812,0.411464,0.428618,0.059682,-0.164005,-0.382564,0.246061,-0.497131,0.424366,0.149607,-0.265631,-0.080124,-0.090799,0.043221,0.207556,-0.001921,-0.450061,0.135045,-0.379369,-0.021807,-0.261202,-0.253959,-0.185212,-0.025536,0.186059,-0.176995,-0.38354,0.5822,True
-0.0079882,0.2402072,-0.189239,0.6096388,0.3193668,0.5692742,0.197022,0.214486,-0.043675,-0.4631384,0.3534356,0.0123708,-0.2307912,0.1180306,0.0977642,-0.3436348,-0.0947172,-0.7130592,-0.5037236,-0.2847128,-0.0874112,0.6953684,-0.2481464,0.0927746,-0.0299482,-0.3639804,-0.3012514,-0.3661544,-0.2379556,-0.2463414,0.3096568,0.12001,-0.053016,0.197057,-0.120848,0.470851,0.330866,0.513265,0.124212,0.101155,-0.016018,-0.433355,0.38063,0.099492,-0.174662,0.052588,0.077841,-0.335364,-0.156731,-0.687764,-0.427355,-0.257196,0.01894,0.477584,-0.155474,0.083258,-0.014281,-0.40961,-0.3096,-0.305258,-0.228175,-0.189506,0.22942,0.156319,True
0.046036,-0.7101976,0.9094542,0.1799964,0.378102,0.2140982,0.0915466,-0.0112228,0.0846338,-0.3598488,0.0931908,-1.1475102,-0.2926912,-0.3142274,0.3248738,-0.6428578,0.0800604,0.3761402,-0.5283598,-0.3187682,-0.4947746,0.3791136,-0.4628558,0.1935686,0.2411968,-0.6346418,0.2717046,0.1772598,0.28068,-0.6006054,-0.3589536,-0.0791562,0.039291,-0.724286,0.8733,0.119718,0.342306,0.111612,0.069553,-0.012611,0.098048,-0.26046,0.034414,-1.024517,-0.257852,-0.332983,0.336468,-0.638887,-0.012438,0.308906,-0.474907,-0.250417,-0.458336,0.318551,-0.397776,0.169744,0.275103,-0.582177,0.184778,0.208899,0.246089,-0.566759,-0.325306,-0.05816,True
0.552017,-0.0014846,0.4372532,0.7043334,0.216996,0.5139502,0.4506116,0.0610702,-0.1774192,-0.4819528,0.3048378,-0.6201242,0.3895268,0.1683626,-0.2772252,-0.0840948,0.0016994,0.1104552,0.1541032,-0.0702722,-0.4864996,0.1956076,-0.4444488,0.0020176,-0.2951082,-0.3064238,-0.0982854,-0.0571752,0.22065,-0.2108414,-0.4171876,0.5612038,0.545272,-0.015573,0.401099,0.644055,0.1812,0.411464,0.428618,0.059682,-0.164005,-0.382564,0.246061,-0.497131,0.424366,0.149607,-0.265631,-0.080124,-0.090799,0.043221,0.207556,-0.001921,-0.450061,0.135045,-0.379369,-0.021807,-0.261202,-0.253959,-0.185212,-0.025536,0.186059,-0.176995,-0.38354,0.5822,True
0.3774406,-0.076883,-0.3381452,0.185517,0.123784,-0.0705876,0.4226948,0.1128908,-0.4449406,0.3975456,0.4208636,0.1781766,0.2363048,0.1671296,0.2812836,-0.2065776,-0.0557832,-0.010259,0.1207194,-0.038525,0.4109548,0.472058,0.0002374,0.4044052,0.714944,0.0205926,0.0195868,-0.0103776,-0.4131386,-0.076452,0.1713288,-0.5529354,0.307057,-0.09258,-0.251224,0.237451,0.106189,-0.023473,0.307492,0.071845,-0.414849,0.384989,0.375132,0.212596,0.17351,0.074592,0.244008,-0.154191,-0.105994,-0.006081,0.065894,-0.017319,0.37565,0.434197,-0.01312,0.395336,0.594081,0.013177,-0.027361,-0.039398,-0.459556,-0.130765,0.101717,-0.575755,True
0.0173676,0.212754,-0.2077692,0.418917,0.348461,0.4661504,0.2394148,0.1422008,-0.0461096,-0.4207984,0.4263616,0.0650726,-0.1118672,0.1451256,0.1151166,-0.3877506,-0.1065202,-0.691942,-0.3725296,-0.278402,0.0542448,0.515445,-0.1421166,0.0923272,0.106582,-0.4021944,-0.2626522,-0.2762376,-0.1817576,-0.135193,0.2990318,0.1791386,-0.053016,0.197057,-0.120848,0.470851,0.330866,0.513265,0.124212,0.101155,-0.016018,-0.433355,0.38063,0.099492,-0.174662,0.052588,0.077841,-0.335364,-0.156731,-0.687764,-0.427355,-0.257196,0.01894,0.477584,-0.155474,0.083258,-0.014281,-0.40961,-0.3096,-0.305258,-0.228175,-0.189506,0.22942,0.156319,True
0.3920286,0.054676,-0.3981192,0.081176,-0.189783,-0.1764566,-0.0143062,0.3370188,-0.0488136,-0.3340674,-0.1345314,-0.0970114,0.4375348,0.4335716,-0.0577764,-0.5541426,0.7180688,0.080767,-0.0840646,-0.000613,0.0090718,0.207953,0.4391924,-0.6062608,0.429534,-0.3840394,0.1841708,0.2929904,-0.4816806,0.102077,-0.1209542,-0.4269004,0.321645,0.038979,-0.311198,0.13311,-0.207378,-0.129342,-0.129509,0.295973,-0.018722,-0.346624,-0.180263,-0.062592,0.37474,0.341034,-0.095052,-0.501756,0.667858,0.084945,-0.13889,0.020593,-0.026233,0.170092,0.425835,-0.61533,0.308671,-0.391455,0.137223,0.26397,-0.528098,0.047764,-0.190566,-0.44972,True
0.6156556,0.000124,0.3141778,0.592121,0.198795,0.3643494,0.5438208,0.1007278,-0.1940966,-0.3700074,0.2917926,-0.5315504,0.4871608,0.2421446,-0.2283554,-0.1325106,-0.0405882,0.039043,0.2623814,-0.023127,-0.4147562,0.172906,-0.3660116,-0.0127378,-0.140339,-0.2465434,-0.1382642,0.0034844,0.2324764,-0.122682,-0.3139282,0.6050196,0.545272,-0.015573,0.401099,0.644055,0.1812,0.411464,0.428618,0.059682,-0.164005,-0.382564,0.246061,-0.497131,0.424366,0.149607,-0.265631,-0.080124,-0.090799,0.043221,0.207556,-0.001921,-0.450061,0.135045,-0.379369,-0.021807,-0.261202,-0.253959,-0.185212,-0.025536,0.186059,-0.176995,-0.38354,0.5822,True
0.160636,-0.3122436,-0.2854072,0.067406,0.0426444,-0.5370656,0.062897,-0.1585446,-0.035965,0.1705142,0.0388154,-0.3036574,1.1501938,0.0752254,-0.7400208,-0.4813874,0.5487048,-0.0548102,0.4622952,0.7311066,0.1991522,-0.1343014,-0.0874038,-0.0687486,-0.0566104,0.065183,0.1264428,-0.2766302,0.296612,-0.6300178,-0.529945,0.056216,0.138063,-0.362705,-0.292284,0.028312,0.029951,-0.569705,0.058968,-0.135227,-0.0575,0.181938,-0.051163,-0.145517,1.086228,0.055045,-0.664471,-0.521006,0.479382,-0.097781,0.43513,0.798905,0.224189,-0.240533,-0.069887,-0.051806,-0.020497,0.070493,0.02135,-0.305698,0.315569,-0.644749,-0.524325,0.044071,True
0.635058,-0.1784906,0.3005528,0.732407,0.2579204,0.5096764,0.291236,0.0539024,-0.228203,-0.2882088,0.2289064,-0.6001104,0.2872658,0.2143164,-0.5310858,0.1580696,0.0440808,0.0606198,-0.0962718,-0.1915134,-0.4663858,0.3822276,-0.4002558,0.1614814,-0.3642874,-0.134788,-0.0600552,0.0277648,0.186165,-0.1832748,-0.219415,0.563353,0.612485,-0.228952,0.293676,0.693313,0.245227,0.477037,0.287307,0.07722,-0.249738,-0.276785,0.138928,-0.44197,0.2233,0.194136,-0.455536,0.118451,-0.025242,0.017649,-0.123437,-0.123715,-0.441349,0.275996,-0.382739,0.178424,-0.328174,-0.129478,-0.165148,-0.001303,0.205122,-0.198006,-0.213795,0.551208,True
0.460598,0.2582524,-0.1793832,0.392173,0.1474074,0.2371864,0.376597,-0.2851086,-0.165297,-0.1879018,0.1615884,-0.0267794,0.4491508,0.4102894,-0.3795828,-0.0475604,-0.1733432,-0.1521672,-0.0551188,-0.3203014,-0.2613428,0.1146796,0.0279082,-0.0499976,0.2663506,-0.164232,-0.2163692,-0.0296262,-0.277854,-0.4547168,-0.146123,-0.116767,0.438025,0.207791,-0.18626,0.353079,0.134714,0.204547,0.372668,-0.261791,-0.186832,-0.176478,0.07161,0.131361,0.385185,0.390109,-0.304033,-0.087179,-0.242666,-0.195138,-0.082284,-0.252503,-0.236306,0.008448,0.045425,-0.033055,0.302464,-0.158922,-0.321462,-0.058694,-0.258897,-0.469448,-0.140503,-0.128912,True
0.567845,0.0348884,0.4079758,0.683149,0.1938934,0.4441034,0.432547,0.0363644,-0.14247,-0.3939878,0.3360394,-0.6552714,0.4883318,0.1697874,-0.3411808,-0.0405054,-0.0214762,0.0861918,0.2347212,-0.0697194,-0.4750978,0.2412766,-0.3968858,-0.0387496,-0.2973154,-0.259269,-0.0801192,0.0035318,0.167102,-0.1622638,-0.38916,0.594345,0.545272,-0.015573,0.401099,0.644055,0.1812,0.411464,0.428618,0.059682,-0.164005,-0.382564,0.246061,-0.497131,0.424366,0.149607,-0.265631,-0.080124,-0.090799,0.043221,0.207556,-0.001921,-0.450061,0.135045,-0.379369,-0.021807,-0.261202,-0.253959,-0.185212,-0.025536,0.186059,-0.176995,-0.38354,0.5822,True
0.284622,0.0398564,-0.1555002,-0.241588,0.0188064,0.3256994,0.130115,-0.3951316,-0.130166,0.0803902,0.7718474,-0.3325334,0.6446158,0.3691534,-0.0853618,-0.2272154,0.2657818,-0.1623672,0.2386082,-0.2045924,0.2325922,0.8906506,-0.0211968,0.2353454,0.0876176,0.098617,0.1274398,0.2229548,0.046634,0.3396312,0.164324,0.121981,0.262049,-0.010605,-0.162377,-0.280682,0.006113,0.29306,0.126186,-0.371814,-0.151701,0.091814,0.681869,-0.174393,0.58065,0.348973,-0.009812,-0.266834,0.196459,-0.205338,0.211443,-0.136794,0.257629,0.784419,-0.00368,0.252288,0.123731,0.103927,0.022347,0.193887,0.065591,0.3249,0.169944,0.109836,True
0.1023984,0.2836042,-0.150284,-0.2014032,-0.070683,-0.4279228,0.6570312,0.1795374,-0.8137444,-0.3184252,0.0299784,0.1085794,0.0695178,0.3294862,-0.1903002,-0.5989372,0.2226594,0.0041642,0.076172,0.1942434,-0.1908288,-0.1178674,0.0184506,-0.0073958,0.1773328,0.019667,0.1394464,-0.4234842,-0.0255954,-0.7843106,0.3104072,0.0722874,0.132025,0.314829,-0.21222,-0.23645,-0.077967,-0.437335,0.518151,0.140381,-0.790675,-0.389252,-0.004717,0.057727,0.061153,0.242455,-0.252596,-0.566813,0.175777,0.063976,0.079104,0.263188,-0.140756,-0.12354,0.011926,0.10538,0.216971,8.4e-05,0.097875,-0.296698,-0.08801,-0.742661,0.206928,-0.042225,True
0.3484734,-0.1245738,0.194057,0.4498708,-0.143554,0.1795592,0.5666482,0.2779634,-0.3473884,0.4561988,0.2699654,0.4343824,0.3765678,0.3550632,0.5757498,0.0367698,-0.2807606,-0.1245558,0.135427,-0.2809836,-0.1429918,0.2492966,0.3811046,-0.3298198,-0.1890832,-0.188809,-0.1108906,-0.4294912,-0.0350954,-0.6587596,0.3728442,0.4740644,0.3781,-0.093349,0.132121,0.414824,-0.150838,0.170147,0.427768,0.238807,-0.324319,0.385372,0.23527,0.38353,0.368203,0.268032,0.513454,0.068894,-0.327643,-0.064744,0.138359,-0.212039,-0.092919,0.243624,0.37458,-0.217044,-0.149445,-0.208392,-0.152462,-0.302705,-0.09751,-0.61711,0.269365,0.359552,True
0.5141274,-0.0974326,0.0981064,0.45142,0.1027824,0.6083392,0.2290744,-0.0258748,-0.3341002,0.1443798,0.0480956,-0.0874202,0.427325,0.4046532,-0.1713502,-0.3863436,-0.517881,0.1168786,-0.113429,-0.2119562,-0.4260224,0.049805,-0.1945254,0.5669174,0.0957106,-0.689088,0.1634916,0.5111224,-0.0509248,-0.443145,0.1739208,-0.1041148,0.484253,-0.111118,0.055558,0.417343,0.14722,0.562355,0.158484,-0.071994,-0.219344,0.022239,0.057092,-0.14682,0.340132,0.387242,-0.191811,-0.334035,-0.508337,0.073946,-0.130494,-0.233293,-0.302113,0.030248,-0.23965,0.585126,0.134908,-0.549216,0.113797,0.477687,-0.034632,-0.428251,0.201712,-0.085887,True
0.331474,0.2971052,0.32397,0.0263724,0.3478248,0.438441,0.3251652,0.0022064,-0.0316412,-0.4143004,0.108611,-0.3496856,0.3765784,0.09817,-0.2738842,-0.1348008,-0.0409688,0.072067,-0.0343218,-0.397275,-0.2775658,-0.1153448,-0.2514922,0.081397,0.2600734,-0.3479578,0.122695,0.5016434,0.2152628,-0.3500754,-0.5077618,-0.288464,0.310776,0.254849,0.134186,0.11567,0.453783,0.494451,0.410381,-0.191728,0.122089,-0.297609,0.222474,-0.26333,0.238094,0.031527,-0.263432,-0.309437,-0.044017,0.2589,0.084485,-0.264514,-0.349085,-0.064576,-0.218268,0.076899,0.341087,-0.29852,0.219233,0.387155,0.057225,-0.310343,-0.351103,-0.197433,True
0.074176,-0.766031,0.759049,-0.1134106,0.1811988,-0.1743428,0.3342766,-0.2598282,-0.0199028,-0.113502,0.2188034,-0.9531878,-0.0358176,-0.0738258,0.0509964,-0.3919186,-0.0467318,0.0382484,-0.2155564,-0.252504,-0.2733714,-0.1408128,-0.3474604,0.1748832,0.520308,-0.5496642,0.2614778,-0.0585736,0.2701036,-0.376994,-0.1642296,-0.0080952,0.144229,-0.755662,0.707374,-0.130561,0.17074,-0.188478,0.239591,-0.228816,-0.064738,-0.109714,0.263894,-0.906232,-0.080048,-0.095023,0.017721,-0.388148,-0.014319,0.059006,-0.229507,-0.119019,-0.198187,-0.145342,-0.33728,0.179154,0.495504,-0.472735,0.192328,-0.033036,0.210618,-0.367126,-0.105467,-0.045882,True
0.5918198,-0.2164778,0.2944992,0.7710356,0.2842482,0.4477112,0.2852858,0.1677662,-0.2838616,-0.268214,0.2067564,-0.5073092,0.242557,0.2431428,-0.4289976,0.1581978,-0.0399054,0.0625252,-0.0961226,-0.1083916,-0.5477008,0.2367998,-0.2834684,0.107499,-0.3744982,-0.2274824,-0.139418,-0.0091626,0.2478732,-0.2326718,-0.2290184,0.5610632,0.612485,-0.228952,0.293676,0.693313,0.245227,0.477037,0.287307,0.07722,-0.249738,-0.276785,0.138928,-0.44197,0.2233,0.194136,-0.455536,0.118451,-0.025242,0.017649,-0.123437,-0.123715,-0.441349,0.275996,-0.382739,0.178424,-0.328174,-0.129478,-0.165148,-0.001303,0.205122,-0.198006,-0.213795,0.551208,True
0.3180836,0.4379798,0.2078714,0.2025922,0.505596,0.5640924,0.434519,-0.1057266,0.1362056,-0.32766,0.2141172,-0.3293014,0.3088796,0.1015052,-0.20078,-0.2906976,-0.05997,0.2737114,0.1223148,-0.4047076,-0.3120684,-0.0627106,-0.2025778,-0.0295312,0.343769,-0.3836236,0.2208108,0.3790934,0.1473864,-0.3212826,-0.313436,-0.2375206,0.310776,0.254849,0.134186,0.11567,0.453783,0.494451,0.410381,-0.191728,0.122089,-0.297609,0.222474,-0.26333,0.238094,0.031527,-0.263432,-0.309437,-0.044017,0.2589,0.084485,-0.264514,-0.349085,-0.064576,-0.218268,0.076899,0.341087,-0.29852,0.219233,0.387155,0.057225,-0.310343,-0.351103,-0.197433,True
0.1657934,0.2817194,0.0769462,0.350642,-0.0018878,-0.0889348,0.2494358,-0.1710754,-0.644778,-0.1052686,0.0338822,-0.3417588,0.2749868,0.0228532,0.1267824,-0.4051586,-0.2369658,0.0230416,0.3965344,0.0560528,-0.1393102,-0.0009126,0.1673352,0.003339,-0.168856,-0.3656312,-0.116706,0.045773,0.0709504,-0.5574368,-0.144211,-0.0563416,0.196824,0.193531,0.05286,0.306016,-0.04812,-0.087967,0.238472,-0.241872,-0.534598,-0.138378,0.007903,-0.292675,0.283771,0.045385,0.009129,-0.360345,-0.274109,-0.002227,0.43649,0.071586,-0.036593,-0.011973,0.063604,0.041602,-0.108499,-0.308801,-0.1874,0.028353,0.00115,-0.54658,-0.093199,-0.139446,True
0.3470694,-0.0051606,0.1562072,0.45945,-0.1046058,0.1691792,0.4387318,0.3096036,-0.434499,0.4184814,0.2612492,0.3344462,0.3594188,0.2455002,0.6311074,0.0240804,-0.2904998,-0.0394754,0.0984034,-0.2275722,-0.1956362,0.2546844,0.4783112,-0.255307,-0.209802,-0.2652222,-0.081768,-0.285285,-0.0277096,-0.6279668,0.218353,0.4426564,0.3781,-0.093349,0.132121,0.414824,-0.150838,0.170147,0.427768,0.238807,-0.324319,0.385372,0.23527,0.38353,0.368203,0.268032,0.513454,0.068894,-0.327643,-0.064744,0.138359,-0.212039,-0.092919,0.243624,0.37458,-0.217044,-0.149445,-0.208392,-0.152462,-0.302705,-0.09751,-0.61711,0.269365,0.359552,True
0.3162086,0.3575144,0.1352816,0.1091284,0.447076,0.633423,0.4201516,-0.1202026,0.0659542,-0.3293936,0.307723,-0.249035,0.1804908,0.0445886,-0.1900768,-0.2724246,-0.034954,0.2786376,0.091423,-0.3330152,-0.3802422,-0.0030326,-0.1562894,0.0632608,0.4035772,-0.4379452,0.2319888,0.454611,0.076448,-0.3680106,-0.4871786,-0.0834028,0.310776,0.254849,0.134186,0.11567,0.453783,0.494451,0.410381,-0.191728,0.122089,-0.297609,0.222474,-0.26333,0.238094,0.031527,-0.263432,-0.309437,-0.044017,0.2589,0.084485,-0.264514,-0.349085,-0.064576,-0.218268,0.076899,0.341087,-0.29852,0.219233,0.387155,0.057225,-0.310343,-0.351103,-0.197433,True
0.1506096,0.415315,0.2218984,0.1201452,0.375522,0.5178244,0.3968818,-0.1180088,0.0788558,-0.3313668,0.0698746,-0.2950598,0.3153642,0.0683128,-0.2592438,-0.2721306,-0.0571032,0.2117716,0.1661578,-0.4807802,-0.3068506,-0.0921222,-0.207723,0.1196114,0.4040648,-0.368093,0.2390978,0.44675,0.1176768,-0.3464142,-0.2858368,-0.1949042,0.310776,0.254849,0.134186,0.11567,0.453783,0.494451,0.410381,-0.191728,0.122089,-0.297609,0.222474,-0.26333,0.238094,0.031527,-0.263432,-0.309437,-0.044017,0.2589,0.084485,-0.264514,-0.349085,-0.064576,-0.218268,0.076899,0.341087,-0.29852,0.219233,0.387155,0.057225,-0.310343,-0.351103,-0.197433,True
0.23506,0.0747006,0.1758812,0.6216626,-0.127331,-0.0646742,0.4976842,-0.3197434,-0.1104462,-0.1155756,-0.0004548,-0.1619946,0.2207486,-0.0827012,0.0806964,0.1392166,-0.0083408,0.0227356,0.3247082,-0.2107086,-0.1313888,-0.2176784,0.3046458,-0.1726434,0.3082944,-0.230238,-0.120151,0.2514008,0.004991,-0.4121554,-0.9464642,0.0915796,0.26148,-0.042912,0.177611,0.541152,-0.176933,-0.125367,0.518169,-0.325829,-0.019664,-0.144963,-0.041658,-0.070328,0.231167,-0.102929,0.122656,0.175856,-0.052905,0.080673,0.355304,-0.220639,-0.06371,-0.165979,0.280664,-0.123162,0.2907,-0.199824,-0.137888,0.233071,-0.01209,-0.454993,-0.860873,0.128684,True
0.284356,0.3724616,0.1324562,0.1961806,0.503385,0.5551438,0.3898962,-0.1856424,0.0313068,-0.2682216,0.2636772,-0.3549966,0.2276756,0.0517548,-0.3053916,-0.3460764,0.0005472,0.2009626,0.0538892,-0.2545836,-0.4167638,-0.1162754,-0.1942862,0.0274176,0.3586814,-0.328934,0.23697,0.4054848,0.074306,-0.2675054,-0.4366942,-0.2345374,0.310776,0.254849,0.134186,0.11567,0.453783,0.494451,0.410381,-0.191728,0.122089,-0.297609,0.222474,-0.26333,0.238094,0.031527,-0.263432,-0.309437,-0.044017,0.2589,0.084485,-0.264514,-0.349085,-0.064576,-0.218268,0.076899,0.341087,-0.29852,0.219233,0.387155,0.057225,-0.310343,-0.351103,-0.197433,True
0.054528,0.3395226,0.3579062,0.9517966,0.205415,0.0822948,0.2226692,-0.2647794,-0.1207322,-0.0907926,0.2131722,-0.3458746,0.3386316,0.1016628,-0.0788766,0.0692506,-0.3614308,0.3115656,0.2355322,-0.1689556,-0.6062408,0.2188936,-0.2617912,0.1477186,0.2038774,-0.68112,0.02994,0.2460568,0.12937,-0.1466854,-0.7083312,0.4597926,0.080948,0.22191,0.359636,0.871286,0.155813,0.021602,0.243154,-0.270865,-0.02995,-0.12018,0.171969,-0.254208,0.34905,0.081435,-0.036917,0.10589,-0.405995,0.369503,0.266128,-0.178886,-0.538562,0.270593,-0.285773,0.1972,0.186283,-0.650706,0.012203,0.227727,0.112289,-0.189523,-0.62274,0.496897,True
0.2812354,0.3233464,0.1883388,0.1795964,0.4908126,0.4659062,0.4693372,-0.1500962,0.0992252,-0.311164,0.201507,-0.2860878,0.259111,0.0640438,-0.202164,-0.2801116,-0.0235536,0.3027018,0.0768596,-0.3399026,-0.4800004,-0.075995,-0.1821078,0.0272968,0.3114908,-0.3707748,0.2941672,0.3839188,0.1262778,-0.3593612,-0.3626772,-0.1658158,0.310776,0.254849,0.134186,0.11567,0.453783,0.494451,0.410381,-0.191728,0.122089,-0.297609,0.222474,-0.26333,0.238094,0.031527,-0.263432,-0.309437,-0.044017,0.2589,0.084485,-0.264514,-0.349085,-0.064576,-0.218268,0.076899,0.341087,-0.29852,0.219233,0.387155,0.057225,-0.310343,-0.351103,-0.197433,True
0.0514074,0.2904074,0.4137888,0.9352124,0.1928426,-0.0069428,0.3021102,-0.2292332,-0.0528138,-0.133735,0.151002,-0.2769658,0.370067,0.1139518,0.024351,0.1352154,-0.3855316,0.4133048,0.2585026,-0.2542746,-0.6694774,0.259174,-0.2496128,0.1475978,0.1566868,-0.7229608,0.0871372,0.2244908,0.1813418,-0.2385412,-0.6343142,0.5285142,0.080948,0.22191,0.359636,0.871286,0.155813,0.021602,0.243154,-0.270865,-0.02995,-0.12018,0.171969,-0.254208,0.34905,0.081435,-0.036917,0.10589,-0.405995,0.369503,0.266128,-0.178886,-0.538562,0.270593,-0.285773,0.1972,0.186283,-0.650706,0.012203,0.227727,0.112289,-0.189523,-0.62274,0.496897,True
0.318135,0.0536646,0.1316658,-0.348178,-0.0581812,-0.3703926,0.2126632,-0.200527,-0.5537978,-0.23414,-0.02925,0.062361,0.3268924,0.121098,-0.4470274,-0.5790054,0.185938,0.0984854,0.4418378,-0.0422526,0.1501998,0.2928718,0.018298,-0.5701796,0.1384826,-0.3112136,-0.151706,-0.5232658,-0.1592722,0.2012976,0.173923,-0.6935684,0.244232,0.02339,0.141477,-0.371877,-0.027154,-0.339928,0.162336,-0.185892,-0.411957,-0.29147,-0.044683,0.03555,0.303594,0.07171,-0.374602,-0.497911,0.158955,0.111117,0.41596,-0.075526,0.153634,0.270574,0.027546,-0.520714,0.107749,-0.287824,-0.123698,-0.417878,-0.109473,0.201266,0.16945,-0.58423,True
0.384679,0.2851236,0.1243748,0.139369,0.4227558,0.4639864,0.4607082,-0.206363,-0.0197518,-0.240279,0.237907,-0.236519,0.2613924,0.080915,-0.3358574,-0.3905314,-0.017034,0.2462684,0.1103628,-0.2312406,-0.3525192,-0.0422782,-0.227516,0.0274334,0.3718206,-0.3219096,0.191225,0.2817672,0.0074258,-0.3103114,-0.34663,-0.3067714,0.310776,0.254849,0.134186,0.11567,0.453783,0.494451,0.410381,-0.191728,0.122089,-0.297609,0.222474,-0.26333,0.238094,0.031527,-0.263432,-0.309437,-0.044017,0.2589,0.084485,-0.264514,-0.349085,-0.064576,-0.218268,0.076899,0.341087,-0.29852,0.219233,0.387155,0.057225,-0.310343,-0.351103,-0.197433,True
0.38096,-0.0623054,-0.2610352,0.26115,0.0751618,-0.0539376,0.3578192,0.05721,-0.5566898,0.442319,0.390565,0.239407,0.1968084,0.12398,0.1715826,-0.2352854,-0.079011,-0.0187126,0.0917718,0.0159544,0.3722158,0.4564948,-0.022368,0.3458704,0.6248146,-0.0102126,-0.055369,-0.1447858,-0.5093552,-0.1307334,0.10619,-0.6850934,0.307057,-0.09258,-0.251224,0.237451,0.106189,-0.023473,0.307492,0.071845,-0.414849,0.384989,0.375132,0.212596,0.17351,0.074592,0.244008,-0.154191,-0.105994,-0.006081,0.065894,-0.017319,0.37565,0.434197,-0.01312,0.395336,0.594081,0.013177,-0.027361,-0.039398,-0.459556,-0.130765,0.101717,-0.575755,True
0.373692,0.2774296,0.1852408,0.193517,-0.2129012,-0.3956906,0.1602872,-0.169046,-0.7084588,-0.348655,-0.031504,-0.084713,0.1728184,-0.1694,-0.3638224,-0.5189114,0.146334,-0.0990666,0.1412688,0.1556524,0.2145648,-0.0584992,0.21393,-0.2691586,0.3846546,-0.3404906,-0.245033,-0.4274978,-0.3452582,-0.1225774,-0.247044,-0.3823174,0.299789,0.247155,0.195052,0.169818,-0.181874,-0.365226,0.10996,-0.154411,-0.566618,-0.405985,-0.046937,-0.111524,0.14952,-0.218788,-0.291397,-0.437817,0.119351,-0.086435,0.115391,0.122379,0.217999,-0.080797,0.223178,-0.219693,0.353921,-0.317101,-0.217025,-0.32211,-0.295459,-0.122609,-0.251517,-0.272979,True
0.423363,0.0307756,-0.3522442,0.077065,0.3257918,0.0983544,0.5607012,0.150092,-0.4299798,0.831385,0.552408,0.622572,-0.0448476,0.477047,0.1177746,-0.2308944,0.145741,0.0330934,0.2411188,-0.1359826,0.3073838,1.0523878,0.047982,0.3543084,0.0926326,0.3898074,-0.194086,-0.4890898,-0.4588512,-0.6424124,0.322015,-0.6122714,0.34946,0.000501,-0.342433,0.053366,0.356819,0.128819,0.510374,0.164727,-0.288139,0.774055,0.536975,0.595761,-0.068146,0.427659,0.1902,-0.1498,0.118758,0.045725,0.215241,-0.169256,0.310818,1.03009,0.05723,0.403774,0.061899,0.413197,-0.166078,-0.383702,-0.409052,-0.642444,0.317542,-0.502933,True
0.450593,0.1353376,-0.4593732,0.226047,0.0730048,0.0873794,0.4274602,0.022797,-0.6770278,0.145377,0.071073,0.665066,0.3410084,0.377439,-0.0849724,-0.4743024,0.021653,-0.0298386,0.0529008,0.1496974,0.2246778,0.1868808,0.249162,-0.1030736,0.4088516,-0.2474916,-0.086876,-0.3638828,-0.5334572,-0.2344024,0.018995,-0.5854734,0.37669,0.105063,-0.449562,0.202348,0.104032,0.117844,0.377133,0.037432,-0.535187,0.088047,0.05564,0.638255,0.31771,0.328051,-0.012547,-0.393208,-0.00533,-0.017207,0.027023,0.116424,0.228112,0.164583,0.25841,-0.053608,0.378118,-0.224102,-0.058868,-0.258495,-0.483658,-0.234434,0.014522,-0.476135,True
0.205928,0.3451036,-0.2220312,-0.212751,-0.1089942,-0.4677996,0.5684782,0.125746,-0.9325158,-0.331922,0.010716,0.084538,0.0844514,0.291843,-0.3250214,-0.6479074,0.20276,0.0513444,0.1049818,0.2964614,-0.1441902,-0.1012422,0.002678,0.0559144,0.2477046,-0.0233056,0.069867,-0.4020858,-0.1378092,-0.7426294,0.211401,-0.1515634,0.132025,0.314829,-0.21222,-0.23645,-0.077967,-0.437335,0.518151,0.140381,-0.790675,-0.389252,-0.004717,0.057727,0.061153,0.242455,-0.252596,-0.566813,0.175777,0.063976,0.079104,0.263188,-0.140756,-0.12354,0.011926,0.10538,0.216971,8.4e-05,0.097875,-0.296698,-0.08801,-0.742661,0.206928,-0.042225,True
0.211966,-0.3324304,-0.3020952,0.052011,-0.0010762,-0.6001696,0.1092952,-0.149862,-0.1993408,0.239268,-0.03573,-0.118706,1.1095264,0.104433,-0.7368964,-0.6021004,0.506365,-0.1104126,0.4610078,0.8321784,0.2207548,-0.2182352,-0.079135,-0.1012716,0.0102366,0.0471034,-0.006658,-0.4110858,0.2657698,-0.6447174,-0.519852,-0.0652674,0.138063,-0.362705,-0.292284,0.028312,0.029951,-0.569705,0.058968,-0.135227,-0.0575,0.181938,-0.051163,-0.145517,1.086228,0.055045,-0.664471,-0.521006,0.479382,-0.097781,0.43513,0.798905,0.224189,-0.240533,-0.069887,-0.051806,-0.020497,0.070493,0.02135,-0.305698,0.315569,-0.644749,-0.524325,0.044071,True
0.404487,0.1852486,-0.3365392,0.515009,0.2717538,0.2189604,0.4915172,-0.144685,-0.3077008,-0.135274,0.144059,0.034649,0.3644394,0.641342,-0.1339954,-0.0993944,-0.475526,0.0337104,-0.0480332,-0.2164666,-0.2371902,0.4524198,-0.010984,0.1211724,0.3865536,-0.1490256,-0.338942,-0.1565788,-0.0959712,-0.0688874,-0.172164,-0.1466054,0.330584,0.154974,-0.326728,0.49131,0.302781,0.249425,0.44119,-0.13005,-0.16586,-0.192604,0.128626,0.007838,0.341141,0.591954,-0.06157,-0.0183,-0.502509,0.046342,-0.073911,-0.24974,-0.233756,0.430122,-0.001736,0.170638,0.35582,-0.125636,-0.310934,-0.051191,-0.046172,-0.068919,-0.176637,-0.037267,True
0.335952,0.0196696,-0.1721882,-0.256983,-0.0249142,0.2625954,0.1765132,-0.386449,-0.2935418,0.149144,0.697302,-0.147582,0.6039484,0.398361,-0.0822374,-0.3479284,0.223442,-0.2179696,0.2373208,-0.1035206,0.2541948,0.8067168,-0.012928,0.2028224,0.1544646,0.0805374,-0.005661,0.0884992,0.0157918,0.3249316,0.174417,0.0004976,0.262049,-0.010605,-0.162377,-0.280682,0.006113,0.29306,0.126186,-0.371814,-0.151701,0.091814,0.681869,-0.174393,0.58065,0.348973,-0.009812,-0.266834,0.196459,-0.205338,0.211443,-0.136794,0.257629,0.784419,-0.00368,0.252288,0.123731,0.103927,0.022347,0.193887,0.065591,0.3249,0.169944,0.109836,True
0.2247568,0.0342632,0.1550112,0.6275124,-0.1174636,-0.1007182,0.5652082,-0.3431328,-0.0735788,-0.1268332,-0.021188,-0.171413,0.2256316,-0.0326212,0.0688966,0.1576292,0.0006734,0.0927922,0.3541186,-0.2468954,-0.123493,-0.2068566,0.2814088,-0.1620054,0.321838,-0.2557316,-0.0995242,0.2887354,0.0120032,-0.4188954,-0.9489988,0.1208516,0.26148,-0.042912,0.177611,0.541152,-0.176933,-0.125367,0.518169,-0.325829,-0.019664,-0.144963,-0.041658,-0.070328,0.231167,-0.102929,0.122656,0.175856,-0.052905,0.080673,0.355304,-0.220639,-0.06371,-0.165979,0.280664,-0.123162,0.2907,-0.199824,-0.137888,0.233071,-0.01209,-0.454993,-0.860873,0.128684,True
-0.0510732,0.4427342,-0.0317288,-0.2684756,0.2033224,0.4032718,0.0678092,-0.4393528,-0.6555488,-0.8360022,-0.120427,-0.105244,0.0525796,-0.0241352,-0.3604594,-0.5134818,0.0174244,0.1843982,0.0412946,-0.3010054,0.076342,-0.0063436,0.4501778,-0.1072354,0.153194,-0.4063416,-0.0633172,0.0050994,0.0840012,-0.5271604,-0.1983888,-0.5843164,-0.01435,0.365559,-0.009129,-0.354836,0.143853,0.378623,0.02077,-0.422049,-0.601634,-0.854132,-0.140897,-0.004159,0.058115,-0.094443,-0.3067,-0.495255,-0.036154,0.172279,0.04248,-0.274749,0.136125,0.034534,0.449433,-0.068392,0.122056,-0.350434,-0.101681,-0.050565,0.059908,-0.563258,-0.110263,-0.576484,True
0.1138258,0.4586082,-0.1737438,0.4929824,0.2278264,-0.0148162,0.1422362,-0.3615288,-0.5684398,-0.1295392,-0.06285,0.112499,0.1860496,0.0436128,-0.1610854,-0.6945768,-0.0073686,-0.2098788,-0.1664904,0.2549896,0.166343,0.2060774,-0.0475332,0.1005936,0.125003,-0.5111926,-0.0396882,-0.2845896,-0.1776698,-0.3270594,-0.2245328,-0.4098884,0.150549,0.381433,-0.151144,0.406622,0.168357,-0.039465,0.095197,-0.344225,-0.514525,-0.147669,-0.08332,0.213584,0.191585,-0.026695,-0.107326,-0.67635,-0.060947,-0.221998,-0.165305,0.281246,0.226126,0.246955,-0.048278,0.139437,0.093865,-0.455285,-0.078052,-0.340254,-0.201763,-0.363157,-0.136407,-0.402056,True
0.1028668,0.5160152,-0.2114848,0.0246824,0.2414694,-0.2949132,0.4018562,-0.2968528,-0.4723368,-0.4631272,-0.201175,-0.029252,0.2653636,-0.0280972,-0.3729104,-0.6329408,0.1439934,0.3484252,0.0265326,0.0703876,0.114472,0.0840404,0.2837638,-0.1410994,0.085745,-0.2992726,-0.0557312,0.0634284,0.0097162,-0.5037364,-0.4164858,-0.4758824,0.13959,0.43884,-0.188885,-0.061678,0.182,-0.319562,0.354817,-0.279549,-0.418422,-0.481257,-0.221645,0.071833,0.270899,-0.098405,-0.319151,-0.614714,0.090415,0.336306,0.027718,0.096644,0.174255,0.124918,0.283019,-0.102256,0.054607,-0.243365,-0.094095,0.007764,-0.014377,-0.539834,-0.32836,-0.46805,True
-0.2952282,-0.0916688,-0.0521128,-0.0163836,-0.2341386,-0.3584212,0.5803702,-0.8221878,-0.2044568,-0.0717112,0.475268,-0.57084,0.1041566,0.6367228,0.1473566,-0.8349188,0.3290364,-0.3905968,0.3572846,-0.2131144,0.240304,-0.2469006,0.1274038,-0.6912254,0.401616,0.0767384,-0.5231762,0.4959914,-0.2336348,-0.2913124,0.1090232,-0.0170744,-0.258505,-0.168844,-0.029513,-0.102744,-0.293608,-0.38307,0.533331,-0.804884,-0.150542,-0.089841,0.454798,-0.469755,0.109692,0.566415,0.201116,-0.816692,0.275458,-0.402716,0.35847,-0.186858,0.300087,-0.206023,0.126659,-0.652382,0.370478,0.132646,-0.56154,0.440327,-0.257728,-0.32741,0.197149,-0.009242,True
0.1601008,0.2707062,0.0302602,0.3923764,0.0113494,-0.0633182,0.2855112,-0.2591758,-0.5885128,-0.1202482,0.028373,-0.39376,0.2782356,0.1156928,-0.0446304,-0.3785718,-0.2205306,0.0098922,0.4353046,0.0453296,-0.096376,-0.0528506,0.0643488,0.0027586,-0.077361,-0.3647086,-0.1490362,0.0840174,0.0252432,-0.5104824,-0.1813248,-0.1472784,0.196824,0.193531,0.05286,0.306016,-0.04812,-0.087967,0.238472,-0.241872,-0.534598,-0.138378,0.007903,-0.292675,0.283771,0.045385,0.009129,-0.360345,-0.274109,-0.002227,0.43649,0.071586,-0.036593,-0.011973,0.063604,0.041602,-0.108499,-0.308801,-0.1874,0.028353,0.00115,-0.54658,-0.093199,-0.139446,True
0.4475298,-0.0339428,0.0329582,0.5037034,0.2066894,0.5870038,0.2055232,-0.0892978,-0.2732588,0.0403688,0.077562,-0.247905,0.3345966,0.4575498,-0.2455704,-0.3522618,-0.4547586,0.0860652,-0.1316794,-0.2595494,-0.361896,-0.0106296,-0.2389052,0.5462826,0.166046,-0.6051236,0.1521608,0.5333514,-0.0105388,-0.3921534,0.1135862,-0.0937194,0.484253,-0.111118,0.055558,0.417343,0.14722,0.562355,0.158484,-0.071994,-0.219344,0.022239,0.057092,-0.14682,0.340132,0.387242,-0.191811,-0.334035,-0.508337,0.073946,-0.130494,-0.233293,-0.302113,0.030248,-0.23965,0.585126,0.134908,-0.549216,0.113797,0.477687,-0.034632,-0.428251,0.201712,-0.085887,True
0.2740528,0.3320242,0.1115862,0.2020304,0.5132524,0.5190998,0.4574202,-0.2090318,0.0681742,-0.2794792,0.242944,-0.364415,0.2325586,0.1018348,-0.3171914,-0.3276638,0.0095614,0.2710192,0.0832996,-0.2907704,-0.408868,-0.1054536,-0.2175232,0.0380556,0.372225,-0.3544276,0.2575968,0.4428194,0.0813182,-0.2742454,-0.4392288,-0.2052654,0.310776,0.254849,0.134186,0.11567,0.453783,0.494451,0.410381,-0.191728,0.122089,-0.297609,0.222474,-0.26333,0.238094,0.031527,-0.263432,-0.309437,-0.044017,0.2589,0.084485,-0.264514,-0.349085,-0.064576,-0.218268,0.076899,0.341087,-0.29852,0.219233,0.387155,0.057225,-0.310343,-0.351103,-0.197433,True
0.4405218,-0.1721388,0.0024472,-0.0122146,-0.1295946,-0.2794052,-0.0580628,0.2406312,-0.4096098,-0.4256862,-0.286078,0.333041,0.3185936,0.2682468,-0.2049164,-0.4371838,0.6833234,-0.1232488,-0.0477124,-0.0465454,-0.06071,-0.0247586,0.3025258,-0.3983294,0.462491,-0.6242526,0.2474788,0.1699514,-0.5752488,0.0312586,-0.1102788,-0.3966284,0.477245,-0.249314,0.025047,-0.098575,-0.189064,-0.304054,-0.105102,0.257935,-0.355695,-0.443816,-0.306548,0.434126,0.324129,0.197939,-0.151157,-0.418957,0.629745,-0.135368,-0.046527,-0.020289,-0.000927,0.016119,0.301781,-0.359486,0.431353,-0.568345,0.209115,0.114287,-0.599342,-0.004839,-0.022153,-0.388796,True
0.2630658,0.3243302,0.1724522,0.2561784,-0.1224046,-0.3405772,0.1569992,-0.1717148,-0.6205328,-0.3878552,-0.026467,-0.212609,0.1439846,-0.1484802,-0.3451564,-0.4560438,0.1729294,-0.0743158,0.1142056,0.0961226,0.158216,-0.1216746,0.2239228,-0.2585364,0.385059,-0.3730086,-0.1786612,-0.2664456,-0.2713658,-0.0865114,-0.3396428,-0.2808114,0.299789,0.247155,0.195052,0.169818,-0.181874,-0.365226,0.10996,-0.154411,-0.566618,-0.405985,-0.046937,-0.111524,0.14952,-0.218788,-0.291397,-0.437817,0.119351,-0.086435,0.115391,0.122379,0.217999,-0.080797,0.223178,-0.219693,0.353921,-0.317101,-0.217025,-0.32211,-0.295459,-0.122609,-0.251517,-0.272979,True
0.2097148,0.0705432,0.0206892,0.3983594,0.3967404,-0.0282662,0.6777142,0.0447052,-0.3127628,-0.1172032,0.162337,-0.007736,0.1583016,0.1915808,0.1012326,-0.3451368,0.2615854,0.0275402,-0.2554704,-0.4522834,0.387701,-0.0107736,0.2708058,-0.0414784,-0.223672,-0.0555396,-0.0907342,-0.3597506,0.1822652,-0.2571384,0.2969552,0.3439146,0.246438,-0.006632,0.043289,0.311999,0.337271,-0.052915,0.630675,0.062009,-0.258848,-0.135333,0.141867,0.093349,0.163837,0.121273,0.154992,-0.32691,0.208007,0.015421,-0.254285,-0.426027,0.447484,0.030104,0.270061,-0.002635,-0.25481,0.000368,-0.129098,-0.415415,0.158172,-0.293236,0.385081,0.351747,True
0.1013398,-0.2855298,-0.3148838,0.1146724,0.0894204,-0.5450562,0.1060072,-0.1525308,-0.1114148,0.2000678,-0.030693,-0.246602,1.0806926,0.1253528,-0.7182304,-0.5392328,0.5329604,-0.0856618,0.4339446,0.7726486,0.164406,-0.2814106,-0.0691422,-0.0906494,0.010641,0.0145854,0.0597138,-0.2500336,0.3396622,-0.6086514,-0.6124508,0.0362386,0.138063,-0.362705,-0.292284,0.028312,0.029951,-0.569705,0.058968,-0.135227,-0.0575,0.181938,-0.051163,-0.145517,1.086228,0.055045,-0.664471,-0.521006,0.479382,-0.097781,0.43513,0.798905,0.224189,-0.240533,-0.069887,-0.051806,-0.020497,0.070493,0.02135,-0.305698,0.315569,-0.644749,-0.524325,0.044071,True
0.0157998,-0.0972228,0.1468362,0.0584834,0.4373164,-0.0327482,0.3020732,-0.1512668,-0.4128228,-0.1658112,-0.042578,-0.675408,-0.0569144,-0.3043112,-0.2652314,-0.7258828,0.0050754,0.0854212,-0.1861824,0.2256696,-0.163958,-0.1137586,-0.1536892,0.3552466,0.351434,-0.3636326,0.1221348,0.1648194,0.1578422,-0.6861514,0.0481642,-0.1262854,0.052523,-0.174398,0.169436,-0.027877,0.377847,-0.057397,0.255034,-0.133963,-0.358908,-0.183941,-0.063048,-0.574323,-0.051379,-0.374619,-0.211472,-0.707656,-0.048503,0.073302,-0.184997,0.251926,-0.104175,-0.072881,-0.154434,0.39409,0.320296,-0.307725,0.083771,0.109155,0.133749,-0.722249,0.13629,-0.118453,True
0.0590388,0.1167182,-0.1163408,0.0927674,0.1386644,-0.4008672,0.0929052,-0.5314498,-0.8544608,-0.2148252,0.051433,-0.166047,0.1928786,-0.0391512,-0.5403484,-0.5103888,0.1535494,0.1299162,0.1901926,-0.0674274,0.300405,-0.0889216,-0.0419552,0.0757576,0.086759,-0.0296456,0.0183188,-0.1620726,-0.0297688,-0.4043314,-0.0418078,-0.1201034,0.095762,0.039543,-0.093741,0.006407,0.079195,-0.425516,0.045866,-0.514146,-0.800546,-0.232955,0.030963,-0.064962,0.198414,-0.109459,-0.486589,-0.492162,0.099971,0.117797,0.191378,-0.041171,0.360188,-0.048044,-0.0427,0.114601,0.055621,0.026262,-0.020045,-0.217737,-0.053862,-0.440429,0.046318,-0.112271,True
0.1564468,0.2232362,-0.1553338,-0.1282666,-0.0089776,-0.1814262,0.4759962,-0.2192178,-0.6110428,-0.1006742,0.203217,-0.301987,0.0551936,0.1667658,-0.0899364,-0.6826678,0.1444324,0.0053632,0.0899996,-0.0527444,0.194399,-0.2068446,0.1657248,-0.1777194,0.560673,-0.3046236,-0.1189282,0.0991744,-0.1206708,-0.0528344,0.0182872,-0.3502464,0.19317,0.146061,-0.132734,-0.214627,-0.068447,-0.206075,0.428957,-0.201914,-0.557128,-0.118804,0.182747,-0.200902,0.060729,0.096458,-0.036177,-0.664441,0.090854,-0.006756,0.091185,-0.026488,0.254182,-0.165967,0.16498,-0.138876,0.529535,-0.248716,-0.157292,0.04351,-0.144764,-0.088932,0.106413,-0.342414,True
-0.0897392,0.2742322,-0.1434478,0.5572114,0.3903354,0.5379138,0.1712512,0.0838512,-0.0699328,-0.4152252,0.4011,-0.001593,-0.1801974,0.1228958,0.0240816,-0.3535908,-0.1031526,-0.6756448,-0.4285404,-0.2834524,-0.040843,0.4367064,-0.1547292,0.0444146,0.016857,-0.4655176,-0.2712362,-0.2495936,-0.2040818,-0.1534084,0.1412942,0.1484866,-0.053016,0.197057,-0.120848,0.470851,0.330866,0.513265,0.124212,0.101155,-0.016018,-0.433355,0.38063,0.099492,-0.174662,0.052588,0.077841,-0.335364,-0.156731,-0.687764,-0.427355,-0.257196,0.01894,0.477584,-0.155474,0.083258,-0.014281,-0.40961,-0.3096,-0.305258,-0.228175,-0.189506,0.22942,0.156319,True
0.2938608,0.2321492,-0.3493278,0.5776704,0.3622504,0.2740738,0.4882292,-0.1473538,-0.2197748,-0.1744742,0.149096,-0.093247,0.3356056,0.6622618,-0.1153294,-0.0365268,-0.4489306,0.0584612,-0.0750964,-0.2759964,-0.293539,0.3892444,-0.0009912,0.1317946,0.386958,-0.1815436,-0.2725702,0.0044734,-0.0220788,-0.0328214,-0.2647628,-0.0450994,0.330584,0.154974,-0.326728,0.49131,0.302781,0.249425,0.44119,-0.13005,-0.16586,-0.192604,0.128626,0.007838,0.341141,0.591954,-0.06157,-0.0183,-0.502509,0.046342,-0.073911,-0.24974,-0.233756,0.430122,-0.001736,0.170638,0.35582,-0.125636,-0.310934,-0.051191,-0.046172,-0.068919,-0.176637,-0.037267,True
